/*
 * BSL Gesture Recognition Model - Arduino Optimized
 *
 * Model Type: XGBoost
 * Timestamp:  20250713_201152
 * Generated with micromlgen for Arduino compatibility
 * File Size: Optimized for <1MB Arduino memory constraints
 */

#ifndef BSL_MODEL_H_20250713_201152
#define BSL_MODEL_H_20250713_201152

#include <math.h>

// Feature count for normalization
const int BSL_MODEL_FEATURES = 20;

// Normalization parameters (StandardScaler)
const float scaler_mean[BSL_MODEL_FEATURES] = { 236.43887165f, 92.39925808f, 68.31279621f, 340.28182297f, 152.37936569f, 61.17299113f, 61.57183206f, 226.23237110f, 328.61752741f, 107.43810835f, 125.86835176f, 440.40250850f, 316.69635454f, 128.98405917f, 63.49782182f, 428.19369046f, 101.83935373f, 73.44464279f, 0.65034229f, 187.40944995f };
const float scaler_scale[BSL_MODEL_FEATURES] = { 135.30685827f, 67.06061261f, 76.61275307f, 168.41752247f, 110.80163096f, 86.67551891f, 35.16740834f, 190.60674057f, 154.65881356f, 79.40660419f, 98.04583070f, 183.85659880f, 139.38753003f, 71.97550737f, 44.95091841f, 177.07511049f, 81.46413449f, 52.91555341f, 3.46432243f, 124.83287112f };

// Normalization function
void normalize_features(float* features, int length) {
    for (int i = 0; i < length; i++) {
        features[i] = (features[i] - scaler_mean[i]) / scaler_scale[i];
    }
}

// Generated XGBoost model code
#pragma once
#include <cstdarg>
namespace Eloquent {
    namespace ML {
        namespace Port {
            class XGBClassifier {
                public:
                    /**
                    * Predict class for features vector
                    */
                    int predict(float *x) {
                        float votes[11] = { 0.0f };
                        // tree #1
                        if (x[7] <= -0.36735454) {
                            votes[0] += -0.146776;
                        }

                        else {
                            votes[0] += 0.3179439;
                        }

                        // tree #2
                        if (x[11] <= 0.7048836) {
                            votes[1] += -0.14630476;
                        }

                        else {
                            if (x[2] <= -0.28629708) {
                                votes[1] += -0.02962987;
                            }

                            else {
                                votes[1] += 0.51049095;
                            }
                        }

                        // tree #3
                        if (x[16] <= 0.13932002) {
                            votes[2] += -0.14592464;
                        }

                        else {
                            votes[2] += 0.10253713;
                        }

                        // tree #4
                        if (x[0] <= 0.9048315) {
                            if (x[1] <= 0.4405469) {
                                votes[3] += -0.14512622;
                            }

                            else {
                                votes[3] += 0.04830407;
                            }
                        }

                        else {
                            votes[3] += 0.51049095;
                        }

                        // tree #5
                        if (x[12] <= -0.9703195) {
                            votes[4] += 0.561845;
                        }

                        else {
                            votes[4] += -0.14774118;
                        }

                        // tree #6
                        if (x[5] <= 1.1085007) {
                            votes[5] += -0.14683823;
                        }

                        else {
                            votes[5] += 0.6431656;
                        }

                        // tree #7
                        if (x[4] <= 0.028642762) {
                            votes[6] += -0.14740148;
                        }

                        else {
                            votes[6] += 0.45913684;
                        }

                        // tree #8
                        if (x[8] <= 0.77264535) {
                            votes[7] += -0.14734955;
                        }

                        else {
                            votes[7] += 0.3121152;
                        }

                        // tree #9
                        if (x[3] <= -0.25240305) {
                            votes[8] += 0.30238742;
                        }

                        else {
                            votes[8] += -0.14671257;
                        }

                        // tree #10
                        if (x[3] <= -0.57654333) {
                            votes[9] += 0.27682772;
                        }

                        else {
                            votes[9] += -0.14713256;
                        }

                        // tree #11
                        if (x[7] <= -0.6315825) {
                            votes[10] += 0.45913684;
                        }

                        else {
                            votes[10] += -0.14760046;
                        }

                        // tree #12
                        if (x[7] <= -0.36735454) {
                            votes[0] += -0.14353132;
                        }

                        else {
                            if (x[15] <= 0.64475435) {
                                votes[0] += 0.41295815;
                            }

                            else {
                                votes[0] += -0.08310537;
                            }
                        }

                        // tree #13
                        if (x[9] <= 1.218536) {
                            if (x[11] <= 0.94527185) {
                                votes[1] += -0.14525375;
                            }

                            else {
                                votes[1] += 0.093307726;
                            }
                        }

                        else {
                            votes[1] += 0.3606926;
                        }

                        // tree #14
                        if (x[12] <= 0.13451385) {
                            votes[2] += -0.14125325;
                        }

                        else {
                            if (x[11] <= 0.64455986) {
                                votes[2] += 0.60618603;
                            }

                            else {
                                votes[2] += -0.13647456;
                            }
                        }

                        // tree #15
                        if (x[0] <= 1.202149) {
                            if (x[11] <= -0.7867269) {
                                votes[3] += -0.0;
                            }

                            else {
                                votes[3] += -0.14556439;
                            }
                        }

                        else {
                            votes[3] += 0.24091096;
                        }

                        // tree #16
                        if (x[15] <= -1.2316108) {
                            votes[4] += 0.33084816;
                        }

                        else {
                            votes[4] += -0.14501622;
                        }

                        // tree #17
                        if (x[3] <= 0.619798) {
                            votes[5] += -0.13320585;
                        }

                        else {
                            votes[5] += 0.28495014;
                        }

                        // tree #18
                        if (x[4] <= 0.6045464) {
                            votes[6] += -0.14749464;
                        }

                        else {
                            votes[6] += 0.55159444;
                        }

                        // tree #19
                        if (x[15] <= 0.73023427) {
                            votes[7] += -0.13260457;
                        }

                        else {
                            votes[7] += 0.4856285;
                        }

                        // tree #20
                        if (x[12] <= 0.57186985) {
                            votes[8] += -0.14692838;
                        }

                        else {
                            votes[8] += 0.29245862;
                        }

                        // tree #21
                        if (x[3] <= -0.57654333) {
                            votes[9] += 0.26492792;
                        }

                        else {
                            votes[9] += -0.14458779;
                        }

                        // tree #22
                        if (x[13] <= -1.5884366) {
                            votes[10] += 0.4606882;
                        }

                        else {
                            votes[10] += -0.14855374;
                        }

                        // tree #23
                        if (x[7] <= -0.37888074) {
                            votes[0] += -0.14086021;
                        }

                        else {
                            if (x[15] <= 0.5511457) {
                                votes[0] += 0.3749808;
                            }

                            else {
                                votes[0] += -0.08421805;
                            }
                        }

                        // tree #24
                        if (x[9] <= 1.2454867) {
                            votes[1] += -0.116806835;
                        }

                        else {
                            votes[1] += 0.21367168;
                        }

                        // tree #25
                        if (x[0] <= 0.5627718) {
                            votes[2] += -0.099373214;
                        }

                        else {
                            votes[2] += 0.17266478;
                        }

                        // tree #26
                        if (x[4] <= -0.41934) {
                            if (x[3] <= 0.29295877) {
                                votes[3] += -0.13214174;
                            }

                            else {
                                votes[3] += 0.29366753;
                            }
                        }

                        else {
                            votes[3] += -0.14419949;
                        }

                        // tree #27
                        if (x[1] <= 0.70272785) {
                            votes[4] += -0.1480264;
                        }

                        else {
                            votes[4] += 0.32589477;
                        }

                        // tree #28
                        if (x[7] <= 1.3031483) {
                            votes[5] += -0.14590229;
                        }

                        else {
                            votes[5] += 0.3263871;
                        }

                        // tree #29
                        if (x[7] <= 1.8489332) {
                            votes[6] += -0.11809115;
                        }

                        else {
                            votes[6] += 0.44921947;
                        }

                        // tree #30
                        if (x[8] <= 0.87471855) {
                            votes[7] += -0.1440397;
                        }

                        else {
                            votes[7] += 0.27534717;
                        }

                        // tree #31
                        if (x[1] <= -0.7936132) {
                            votes[8] += 0.2778365;
                        }

                        else {
                            votes[8] += -0.1452673;
                        }

                        // tree #32
                        if (x[15] <= 0.19467998) {
                            votes[9] += 0.19704463;
                        }

                        else {
                            votes[9] += -0.12677805;
                        }

                        // tree #33
                        if (x[1] <= -1.2675421) {
                            votes[10] += 0.6303752;
                        }

                        else {
                            votes[10] += -0.14744635;
                        }

                        // tree #34
                        if (x[5] <= -0.32501292) {
                            votes[0] += -0.11991198;
                        }

                        else {
                            if (x[0] <= 0.18240744) {
                                votes[0] += -0.05128503;
                            }

                            else {
                                votes[0] += 0.3405804;
                            }
                        }

                        // tree #35
                        if (x[15] <= 0.76873875) {
                            if (x[9] <= 1.0939472) {
                                votes[1] += -0.14215909;
                            }

                            else {
                                votes[1] += 0.038680103;
                            }
                        }

                        else {
                            votes[1] += 0.29666275;
                        }

                        // tree #36
                        if (x[0] <= 0.53754187) {
                            votes[2] += -0.12566963;
                        }

                        else {
                            votes[2] += 0.13266303;
                        }

                        // tree #37
                        if (x[12] <= 0.021015162) {
                            if (x[12] <= -0.9078678) {
                                votes[3] += -0.13874522;
                            }

                            else {
                                votes[3] += 0.3901488;
                            }
                        }

                        else {
                            votes[3] += -0.14397065;
                        }

                        // tree #38
                        if (x[15] <= -1.2227976) {
                            votes[4] += 0.21452577;
                        }

                        else {
                            votes[4] += -0.14261521;
                        }

                        // tree #39
                        if (x[19] <= 0.8981677) {
                            votes[5] += -0.13104084;
                        }

                        else {
                            votes[5] += 0.20377305;
                        }

                        // tree #40
                        if (x[4] <= 1.9603791) {
                            votes[6] += -0.14778481;
                        }

                        else {
                            votes[6] += 0.42673814;
                        }

                        // tree #41
                        if (x[15] <= 0.74375355) {
                            votes[7] += -0.14388628;
                        }

                        else {
                            votes[7] += 0.25736922;
                        }

                        // tree #42
                        if (x[12] <= 0.66779923) {
                            votes[8] += -0.14577612;
                        }

                        else {
                            if (x[8] <= 0.19072708) {
                                votes[8] += 0.51839256;
                            }

                            else {
                                votes[8] += -0.14025943;
                            }
                        }

                        // tree #43
                        if (x[0] <= -0.5771108) {
                            if (x[0] <= -1.244513) {
                                votes[9] += -0.088416226;
                            }

                            else {
                                votes[9] += 0.37628853;
                            }
                        }

                        else {
                            votes[9] += -0.1418419;
                        }

                        // tree #44
                        if (x[15] <= -1.8890104) {
                            votes[10] += 0.3671361;
                        }

                        else {
                            votes[10] += -0.14477281;
                        }

                        // tree #45
                        if (x[7] <= -0.36735454) {
                            votes[0] += -0.13637473;
                        }

                        else {
                            if (x[15] <= 0.5022023) {
                                votes[0] += 0.35517475;
                            }

                            else {
                                votes[0] += -0.033759188;
                            }
                        }

                        // tree #46
                        if (x[17] <= 0.60700464) {
                            votes[1] += -0.123346746;
                        }

                        else {
                            if (x[4] <= -0.33798295) {
                                votes[1] += 0.4232305;
                            }

                            else {
                                votes[1] += -0.035759255;
                            }
                        }

                        // tree #47
                        if (x[6] <= 0.34564507) {
                            votes[2] += -0.14176959;
                        }

                        else {
                            if (x[19] <= 0.5302819) {
                                votes[2] += -0.089124665;
                            }

                            else {
                                votes[2] += 0.28279942;
                            }
                        }

                        // tree #48
                        if (x[12] <= -0.10180135) {
                            if (x[12] <= -0.80182594) {
                                votes[3] += -0.08749687;
                            }

                            else {
                                votes[3] += 0.25232908;
                            }
                        }

                        else {
                            votes[3] += -0.1408838;
                        }

                        // tree #49
                        if (x[15] <= -1.1542597) {
                            votes[4] += 0.18348517;
                        }

                        else {
                            votes[4] += -0.13975652;
                        }

                        // tree #50
                        if (x[7] <= 1.2661054) {
                            votes[5] += -0.14136943;
                        }

                        else {
                            if (x[8] <= 0.14725211) {
                                votes[5] += 0.4835512;
                            }

                            else {
                                votes[5] += -0.0029909385;
                            }
                        }

                        // tree #51
                        if (x[4] <= 1.9603791) {
                            votes[6] += -0.14549349;
                        }

                        else {
                            votes[6] += 0.22631486;
                        }

                        // tree #52
                        if (x[8] <= 1.2655456) {
                            votes[7] += -0.11193042;
                        }

                        else {
                            votes[7] += 0.24287298;
                        }

                        // tree #53
                        if (x[12] <= 0.6319324) {
                            votes[8] += -0.14138186;
                        }

                        else {
                            if (x[8] <= 0.14345783) {
                                votes[8] += 0.31013358;
                            }

                            else {
                                votes[8] += -0.1389737;
                            }
                        }

                        // tree #54
                        if (x[7] <= -0.5764953) {
                            if (x[19] <= -0.35162452) {
                                votes[9] += -0.13549858;
                            }

                            else {
                                votes[9] += 0.30600265;
                            }
                        }

                        else {
                            votes[9] += -0.14252448;
                        }

                        // tree #55
                        if (x[1] <= -1.1506033) {
                            votes[10] += 0.2914752;
                        }

                        else {
                            votes[10] += -0.14395466;
                        }

                        // tree #56
                        if (x[5] <= -0.348894) {
                            votes[0] += -0.13442667;
                        }

                        else {
                            if (x[0] <= 0.074221246) {
                                votes[0] += -0.088949576;
                            }

                            else {
                                votes[0] += 0.21082339;
                            }
                        }

                        // tree #57
                        if (x[16] <= -0.20508698) {
                            votes[1] += -0.14040218;
                        }

                        else {
                            if (x[11] <= 0.78844666) {
                                votes[1] += -0.04934872;
                            }

                            else {
                                votes[1] += 0.2039486;
                            }
                        }

                        // tree #58
                        if (x[14] <= 0.94114226) {
                            if (x[0] <= 0.5627718) {
                                votes[2] += -0.13931449;
                            }

                            else {
                                votes[2] += 0.017904328;
                            }
                        }

                        else {
                            votes[2] += 0.2240469;
                        }

                        // tree #59
                        if (x[0] <= 1.202149) {
                            votes[3] += -0.09122325;
                        }

                        else {
                            votes[3] += 0.19008063;
                        }

                        // tree #60
                        if (x[1] <= 0.53095853) {
                            votes[4] += -0.12720668;
                        }

                        else {
                            votes[4] += 0.13048778;
                        }

                        // tree #61
                        if (x[7] <= 1.5550551) {
                            votes[5] += -0.1405715;
                        }

                        else {
                            votes[5] += 0.12776622;
                        }

                        // tree #62
                        if (x[4] <= 1.9213263) {
                            votes[6] += -0.13936731;
                        }

                        else {
                            votes[6] += 0.20376691;
                        }

                        // tree #63
                        if (x[15] <= 0.6717075) {
                            votes[7] += -0.13922398;
                        }

                        else {
                            if (x[1] <= -0.07562583) {
                                votes[7] += 0.37578797;
                            }

                            else {
                                votes[7] += -0.008742218;
                            }
                        }

                        // tree #64
                        if (x[1] <= -0.7936132) {
                            if (x[12] <= 0.833159) {
                                votes[8] += -0.009742883;
                            }

                            else {
                                votes[8] += 0.18555658;
                            }
                        }

                        else {
                            votes[8] += -0.13820718;
                        }

                        // tree #65
                        if (x[15] <= 0.10355274) {
                            if (x[13] <= -0.96264416) {
                                votes[9] += -0.03696569;
                            }

                            else {
                                votes[9] += 0.30967396;
                            }
                        }

                        else {
                            votes[9] += -0.12118705;
                        }

                        // tree #66
                        if (x[15] <= -1.8815662) {
                            votes[10] += 0.24653836;
                        }

                        else {
                            votes[10] += -0.14062136;
                        }

                        // tree #67
                        if (x[4] <= -0.3124842) {
                            votes[0] += -0.13810746;
                        }

                        else {
                            if (x[15] <= 0.5161494) {
                                votes[0] += 0.22962;
                            }

                            else {
                                votes[0] += -0.030842185;
                            }
                        }

                        // tree #68
                        if (x[2] <= -0.0058627287) {
                            votes[1] += -0.10531331;
                        }

                        else {
                            votes[1] += 0.10678162;
                        }

                        // tree #69
                        if (x[14] <= 0.24981582) {
                            votes[2] += -0.121099;
                        }

                        else {
                            votes[2] += 0.07636306;
                        }

                        // tree #70
                        if (x[0] <= 1.2393339) {
                            votes[3] += -0.09231993;
                        }

                        else {
                            votes[3] += 0.18109165;
                        }

                        // tree #71
                        if (x[13] <= -1.528353) {
                            votes[4] += 0.18950054;
                        }

                        else {
                            votes[4] += -0.13706867;
                        }

                        // tree #72
                        if (x[7] <= 1.5516369) {
                            votes[5] += -0.13739687;
                        }

                        else {
                            if (x[4] <= 0.89388955) {
                                votes[5] += 0.32028952;
                            }

                            else {
                                votes[5] += -0.00647508;
                            }
                        }

                        // tree #73
                        if (x[4] <= 1.9603791) {
                            votes[6] += -0.13861217;
                        }

                        else {
                            votes[6] += 0.12885563;
                        }

                        // tree #74
                        if (x[9] <= 0.4155863) {
                            votes[7] += -0.14804646;
                        }

                        else {
                            if (x[5] <= -0.5002165) {
                                votes[7] += 0.3145605;
                            }

                            else {
                                votes[7] += -0.05540369;
                            }
                        }

                        // tree #75
                        if (x[3] <= -0.4329608) {
                            if (x[12] <= 0.82408357) {
                                votes[8] += -0.01870881;
                            }

                            else {
                                votes[8] += 0.17245619;
                            }
                        }

                        else {
                            votes[8] += -0.13820857;
                        }

                        // tree #76
                        if (x[3] <= -0.574924) {
                            if (x[0] <= -1.2142832) {
                                votes[9] += -0.0039661145;
                            }

                            else {
                                votes[9] += 0.19950765;
                            }
                        }

                        else {
                            votes[9] += -0.13567516;
                        }

                        // tree #77
                        if (x[9] <= -1.2307984) {
                            votes[10] += 0.20814846;
                        }

                        else {
                            votes[10] += -0.1397897;
                        }

                        // tree #78
                        if (x[2] <= 0.34517464) {
                            votes[0] += -0.09242262;
                        }

                        else {
                            votes[0] += 0.10218861;
                        }

                        // tree #79
                        if (x[17] <= 0.61155194) {
                            votes[1] += -0.111721925;
                        }

                        else {
                            if (x[5] <= -0.38584858) {
                                votes[1] += 0.23764966;
                            }

                            else {
                                votes[1] += -0.030121252;
                            }
                        }

                        // tree #80
                        if (x[14] <= 1.0567566) {
                            if (x[19] <= 0.557227) {
                                votes[2] += -0.13522148;
                            }

                            else {
                                votes[2] += 0.04349501;
                            }
                        }

                        else {
                            votes[2] += 0.23657839;
                        }

                        // tree #81
                        if (x[7] <= -0.56353825) {
                            votes[3] += 0.08557051;
                        }

                        else {
                            votes[3] += -0.11743085;
                        }

                        // tree #82
                        if (x[15] <= -1.2227976) {
                            if (x[0] <= 0.27550447) {
                                votes[4] += -0.042116247;
                            }

                            else {
                                votes[4] += 0.2748649;
                            }
                        }

                        else {
                            votes[4] += -0.13480356;
                        }

                        // tree #83
                        if (x[19] <= 0.85423017) {
                            votes[5] += -0.1345498;
                        }

                        else {
                            votes[5] += 0.12320998;
                        }

                        // tree #84
                        if (x[4] <= 2.2151232) {
                            votes[6] += -0.13862799;
                        }

                        else {
                            votes[6] += 0.15448558;
                        }

                        // tree #85
                        if (x[15] <= 0.67145073) {
                            votes[7] += -0.1094233;
                        }

                        else {
                            if (x[1] <= -0.47867304) {
                                votes[7] += 0.26827252;
                            }

                            else {
                                votes[7] += 0.036249734;
                            }
                        }

                        // tree #86
                        if (x[9] <= -0.22466114) {
                            if (x[13] <= -0.11963696) {
                                votes[8] += -0.09538063;
                            }

                            else {
                                votes[8] += 0.17743836;
                            }
                        }

                        else {
                            votes[8] += -0.13673452;
                        }

                        // tree #87
                        if (x[3] <= -0.57654333) {
                            if (x[14] <= -0.53656375) {
                                votes[9] += 0.23949382;
                            }

                            else {
                                votes[9] += 0.03700542;
                            }
                        }

                        else {
                            votes[9] += -0.13335057;
                        }

                        // tree #88
                        if (x[17] <= -1.3648555) {
                            votes[10] += 0.17624837;
                        }

                        else {
                            votes[10] += -0.13582551;
                        }

                        // tree #89
                        if (x[4] <= -0.25295657) {
                            votes[0] += -0.11057113;
                        }

                        else {
                            if (x[6] <= 0.10997575) {
                                votes[0] += -0.007323652;
                            }

                            else {
                                votes[0] += 0.26089504;
                            }
                        }

                        // tree #90
                        if (x[17] <= 0.61155194) {
                            votes[1] += -0.13665797;
                        }

                        else {
                            if (x[2] <= -0.03711) {
                                votes[1] += -0.015012773;
                            }

                            else {
                                votes[1] += 0.22622854;
                            }
                        }

                        // tree #91
                        if (x[12] <= 0.13817707) {
                            votes[2] += -0.13304523;
                        }

                        else {
                            if (x[11] <= 0.21149836) {
                                votes[2] += 0.20143817;
                            }

                            else {
                                votes[2] += -0.09850239;
                            }
                        }

                        // tree #92
                        if (x[12] <= 0.025204485) {
                            votes[3] += 0.051349986;
                        }

                        else {
                            votes[3] += -0.13181382;
                        }

                        // tree #93
                        if (x[19] <= -1.394352) {
                            if (x[7] <= -0.6035222) {
                                votes[4] += -0.0;
                            }

                            else {
                                votes[4] += 0.22371918;
                            }
                        }

                        else {
                            votes[4] += -0.13288617;
                        }

                        // tree #94
                        if (x[6] <= -0.5078484) {
                            votes[5] += 0.12282315;
                        }

                        else {
                            votes[5] += -0.119326055;
                        }

                        // tree #95
                        if (x[7] <= 1.7360561) {
                            votes[6] += -0.13221265;
                        }

                        else {
                            votes[6] += 0.14613804;
                        }

                        // tree #96
                        if (x[1] <= -0.08225313) {
                            votes[7] += 0.12334829;
                        }

                        else {
                            votes[7] += -0.12827343;
                        }

                        // tree #97
                        if (x[12] <= 0.67071676) {
                            votes[8] += -0.13357015;
                        }

                        else {
                            votes[8] += 0.04437475;
                        }

                        // tree #98
                        if (x[0] <= -0.5771108) {
                            if (x[2] <= -0.34127647) {
                                votes[9] += -0.010234433;
                            }

                            else {
                                votes[9] += 0.20580773;
                            }
                        }

                        else {
                            votes[9] += -0.13173951;
                        }

                        // tree #99
                        if (x[9] <= -1.2093616) {
                            votes[10] += 0.18656603;
                        }

                        else {
                            votes[10] += -0.13378099;
                        }

                        // tree #100
                        if (x[5] <= -0.348894) {
                            votes[0] += -0.12713717;
                        }

                        else {
                            if (x[9] <= 0.9057337) {
                                votes[0] += 0.1862309;
                            }

                            else {
                                votes[0] += -0.041032787;
                            }
                        }

                        // tree #101
                        if (x[8] <= 1.1354753) {
                            votes[1] += -0.06321205;
                        }

                        else {
                            votes[1] += 0.1477455;
                        }

                        // tree #102
                        if (x[19] <= 0.557227) {
                            votes[2] += -0.13137236;
                        }

                        else {
                            if (x[9] <= 0.020020531) {
                                votes[2] += 0.16566883;
                            }

                            else {
                                votes[2] += -0.036002208;
                            }
                        }

                        // tree #103
                        if (x[3] <= 0.30717307) {
                            votes[3] += -0.12835199;
                        }

                        else {
                            votes[3] += 0.039620575;
                        }

                        // tree #104
                        if (x[15] <= -1.2939025) {
                            votes[4] += 0.091603875;
                        }

                        else {
                            votes[4] += -0.12976453;
                        }

                        // tree #105
                        if (x[1] <= 0.59565496) {
                            votes[5] += -0.1360035;
                        }

                        else {
                            if (x[10] <= -0.7625239) {
                                votes[5] += 0.2164891;
                            }

                            else {
                                votes[5] += 0.00883158;
                            }
                        }

                        // tree #106
                        if (x[9] <= 0.2779445) {
                            votes[6] += -0.15856372;
                        }

                        else {
                            votes[6] += 0.11837091;
                        }

                        // tree #107
                        if (x[1] <= -0.9226998) {
                            votes[7] += 0.1262782;
                        }

                        else {
                            votes[7] += -0.12909989;
                        }

                        // tree #108
                        if (x[11] <= -0.059793435) {
                            votes[8] += 0.04895187;
                        }

                        else {
                            votes[8] += -0.13251974;
                        }

                        // tree #109
                        if (x[15] <= 0.20888382) {
                            if (x[17] <= 0.29553062) {
                                votes[9] += -0.015756786;
                            }

                            else {
                                votes[9] += 0.2035985;
                            }
                        }

                        else {
                            votes[9] += -0.10769566;
                        }

                        // tree #110
                        if (x[9] <= -1.188381) {
                            votes[10] += 0.16622125;
                        }

                        else {
                            votes[10] += -0.13393342;
                        }

                        // tree #111
                        if (x[9] <= 0.06481754) {
                            votes[0] += -0.13698824;
                        }

                        else {
                            if (x[15] <= 0.5124701) {
                                votes[0] += 0.13735375;
                            }

                            else {
                                votes[0] += -0.05632638;
                            }
                        }

                        // tree #112
                        if (x[11] <= 1.0448225) {
                            if (x[4] <= -0.481283) {
                                votes[1] += 0.054175686;
                            }

                            else {
                                votes[1] += -0.13428533;
                            }
                        }

                        else {
                            votes[1] += 0.1911062;
                        }

                        // tree #113
                        if (x[15] <= 0.5746762) {
                            votes[2] += -0.11085379;
                        }

                        else {
                            if (x[11] <= -0.09786658) {
                                votes[2] += 0.19352975;
                            }

                            else {
                                votes[2] += -0.0069700233;
                            }
                        }

                        // tree #114
                        if (x[0] <= 1.2393339) {
                            votes[3] += -0.076973364;
                        }

                        else {
                            votes[3] += 0.08223598;
                        }

                        // tree #115
                        if (x[15] <= -1.2316108) {
                            votes[4] += 0.112747096;
                        }

                        else {
                            votes[4] += -0.12873775;
                        }

                        // tree #116
                        if (x[1] <= 0.62867117) {
                            votes[5] += -0.13327664;
                        }

                        else {
                            votes[5] += 0.13813627;
                        }

                        // tree #117
                        if (x[7] <= 1.8489332) {
                            votes[6] += -0.12080706;
                        }

                        else {
                            votes[6] += 0.18228903;
                        }

                        // tree #118
                        if (x[8] <= 0.77264535) {
                            votes[7] += -0.13104752;
                        }

                        else {
                            if (x[17] <= 0.61118066) {
                                votes[7] += 0.21649906;
                            }

                            else {
                                votes[7] += -0.06427094;
                            }
                        }

                        // tree #119
                        if (x[3] <= -0.26463816) {
                            votes[8] += 0.071486525;
                        }

                        else {
                            votes[8] += -0.13058019;
                        }

                        // tree #120
                        if (x[15] <= 0.19467998) {
                            votes[9] += 0.047749262;
                        }

                        else {
                            votes[9] += -0.13281646;
                        }

                        // tree #121
                        if (x[12] <= -1.6335914) {
                            votes[10] += 0.16609816;
                        }

                        else {
                            votes[10] += -0.13045393;
                        }

                        // tree #122
                        votes[0] += -0.013718781;
                        // tree #123
                        if (x[1] <= -0.058715697) {
                            votes[1] += -0.13605767;
                        }

                        else {
                            if (x[1] <= 0.42400688) {
                                votes[1] += 0.12993784;
                            }

                            else {
                                votes[1] += -0.061238922;
                            }
                        }

                        // tree #124
                        if (x[19] <= 0.6896465) {
                            votes[2] += -0.11104872;
                        }

                        else {
                            votes[2] += 0.067718096;
                        }

                        // tree #125
                        if (x[12] <= 0.025204485) {
                            votes[3] += 0.049601372;
                        }

                        else {
                            votes[3] += -0.12964152;
                        }

                        // tree #126
                        if (x[1] <= 0.937152) {
                            votes[4] += -0.095036335;
                        }

                        else {
                            votes[4] += 0.12927572;
                        }

                        // tree #127
                        if (x[12] <= 0.11918163) {
                            votes[5] += 0.076039895;
                        }

                        else {
                            votes[5] += -0.13469446;
                        }

                        // tree #128
                        if (x[4] <= 1.9603791) {
                            votes[6] += -0.12865461;
                        }

                        else {
                            votes[6] += 0.12314934;
                        }

                        // tree #129
                        if (x[8] <= 0.77264535) {
                            votes[7] += -0.12633933;
                        }

                        else {
                            votes[7] += 0.08550395;
                        }

                        // tree #130
                        if (x[12] <= 0.66779923) {
                            votes[8] += -0.12838301;
                        }

                        else {
                            votes[8] += 0.05200461;
                        }

                        // tree #131
                        if (x[0] <= -0.5771108) {
                            votes[9] += 0.06449661;
                        }

                        else {
                            votes[9] += -0.12446279;
                        }

                        // tree #132
                        if (x[9] <= -1.2345634) {
                            votes[10] += 0.16495097;
                        }

                        else {
                            votes[10] += -0.1292204;
                        }

                        // tree #133
                        if (x[8] <= 0.4095803) {
                            votes[0] += -0.07161908;
                        }

                        else {
                            votes[0] += 0.113311894;
                        }

                        // tree #134
                        if (x[11] <= 1.0448225) {
                            votes[1] += -0.060597405;
                        }

                        else {
                            votes[1] += 0.09756009;
                        }

                        // tree #135
                        if (x[12] <= 0.3385091) {
                            votes[2] += -0.12919419;
                        }

                        else {
                            if (x[0] <= 0.5592837) {
                                votes[2] += -0.050148148;
                            }

                            else {
                                votes[2] += 0.13855588;
                            }
                        }

                        // tree #136
                        if (x[12] <= 0.021015162) {
                            votes[3] += 0.0780833;
                        }

                        else {
                            votes[3] += -0.12707482;
                        }

                        // tree #137
                        if (x[15] <= -1.2316108) {
                            votes[4] += 0.08168692;
                        }

                        else {
                            votes[4] += -0.12525095;
                        }

                        // tree #138
                        if (x[7] <= 1.2661054) {
                            votes[5] += -0.12746271;
                        }

                        else {
                            votes[5] += 0.09484305;
                        }

                        // tree #139
                        if (x[4] <= 1.9603791) {
                            votes[6] += -0.12914693;
                        }

                        else {
                            votes[6] += 0.107935615;
                        }

                        // tree #140
                        if (x[8] <= 0.77264535) {
                            votes[7] += -0.12747653;
                        }

                        else {
                            votes[7] += 0.08072721;
                        }

                        // tree #141
                        if (x[14] <= -0.15601403) {
                            votes[8] += 0.05245414;
                        }

                        else {
                            votes[8] += -0.13020003;
                        }

                        // tree #142
                        if (x[15] <= 0.19159961) {
                            votes[9] += 0.052015215;
                        }

                        else {
                            votes[9] += -0.13090973;
                        }

                        // tree #143
                        votes[10] += -0.0;
                        // tree #144
                        if (x[13] <= 0.75795424) {
                            votes[0] += -0.050854973;
                        }

                        else {
                            votes[0] += 0.14897674;
                        }

                        // tree #145
                        if (x[11] <= 0.76652575) {
                            votes[1] += -0.1262156;
                        }

                        else {
                            votes[1] += 0.039033856;
                        }

                        // tree #146
                        votes[2] += 0.023698723;
                        // tree #147
                        votes[3] += -0.016160637;
                        // tree #148
                        if (x[1] <= 0.76318914) {
                            votes[4] += -0.098482266;
                        }

                        else {
                            votes[4] += 0.105146416;
                        }

                        // tree #149
                        if (x[7] <= 1.2661054) {
                            votes[5] += -0.12296467;
                        }

                        else {
                            votes[5] += 0.11143644;
                        }

                        // tree #150
                        if (x[4] <= 2.071361) {
                            votes[6] += -0.081677966;
                        }

                        else {
                            votes[6] += 0.11625633;
                        }

                        // tree #151
                        if (x[17] <= 0.58011365) {
                            votes[7] += 0.07858594;
                        }

                        else {
                            votes[7] += -0.109522946;
                        }

                        // tree #152
                        if (x[3] <= -0.3797921) {
                            votes[8] += 0.068337426;
                        }

                        else {
                            votes[8] += -0.101535425;
                        }

                        // tree #153
                        votes[9] += -0.0026256703;
                        // tree #154
                        votes[10] += -0.0;
                        // tree #155
                        if (x[0] <= 0.071997344) {
                            votes[0] += -0.10461917;
                        }

                        else {
                            votes[0] += 0.10011885;
                        }

                        // tree #156
                        if (x[8] <= 1.1354753) {
                            votes[1] += -0.10062141;
                        }

                        else {
                            votes[1] += 0.06733339;
                        }

                        // tree #157
                        if (x[3] <= 0.11788881) {
                            votes[2] += -0.12867844;
                        }

                        else {
                            votes[2] += 0.05358772;
                        }

                        // tree #158
                        votes[3] += -0.010066503;
                        // tree #159
                        if (x[1] <= 0.6869292) {
                            votes[4] += -0.10784665;
                        }

                        else {
                            votes[4] += 0.09966126;
                        }

                        // tree #160
                        if (x[6] <= -0.5078484) {
                            votes[5] += 0.113958284;
                        }

                        else {
                            votes[5] += -0.0986826;
                        }

                        // tree #161
                        if (x[3] <= 0.088110715) {
                            votes[6] += 0.092422225;
                        }

                        else {
                            votes[6] += -0.10443873;
                        }

                        // tree #162
                        if (x[15] <= 0.73023427) {
                            votes[7] += -0.10049823;
                        }

                        else {
                            votes[7] += 0.077520244;
                        }

                        // tree #163
                        votes[8] += -0.010486219;
                        // tree #164
                        if (x[11] <= -1.0412072) {
                            votes[9] += 0.09451966;
                        }

                        else {
                            votes[9] += -0.093036816;
                        }

                        // tree #165
                        if (x[15] <= -1.8890104) {
                            votes[10] += 0.1585678;
                        }

                        else {
                            votes[10] += -0.123514935;
                        }

                        // tree #166
                        if (x[8] <= 1.0573268) {
                            votes[0] += -0.05749578;
                        }

                        else {
                            votes[0] += 0.15554468;
                        }

                        // tree #167
                        if (x[1] <= -0.058715697) {
                            votes[1] += -0.10149081;
                        }

                        else {
                            votes[1] += 0.079577126;
                        }

                        // tree #168
                        votes[2] += -0.018449161;
                        // tree #169
                        if (x[0] <= 0.21175823) {
                            votes[3] += -0.08440764;
                        }

                        else {
                            votes[3] += 0.07232443;
                        }

                        // tree #170
                        votes[4] += -0.0058053182;
                        // tree #171
                        votes[5] += -0.0;
                        // tree #172
                        if (x[7] <= 1.8489332) {
                            votes[6] += -0.09668064;
                        }

                        else {
                            votes[6] += 0.14830753;
                        }

                        // tree #173
                        if (x[1] <= -0.8801323) {
                            votes[7] += 0.1195558;
                        }

                        else {
                            votes[7] += -0.0671859;
                        }

                        // tree #174
                        votes[8] += 0.014231135;
                        // tree #175
                        if (x[3] <= -0.9211955) {
                            votes[9] += 0.07388822;
                        }

                        else {
                            votes[9] += -0.10305753;
                        }

                        // tree #176
                        votes[10] += -0.0;
                        // tree #177
                        if (x[3] <= 0.3219272) {
                            votes[0] += -0.13238356;
                        }

                        else {
                            votes[0] += 0.07330731;
                        }

                        // tree #178
                        votes[1] += -0.011068258;
                        // tree #179
                        if (x[14] <= 0.7382273) {
                            votes[2] += -0.058864202;
                        }

                        else {
                            votes[2] += 0.10568014;
                        }

                        // tree #180
                        votes[3] += -0.024954658;
                        // tree #181
                        votes[4] += -0.0;
                        // tree #182
                        if (x[9] <= 0.7498412) {
                            votes[5] += -0.12847851;
                        }

                        else {
                            votes[5] += 0.09705002;
                        }

                        // tree #183
                        votes[6] += -0.0;
                        // tree #184
                        votes[7] += -0.0024082963;
                        // tree #185
                        votes[8] += 0.019978652;
                        // tree #186
                        votes[9] += -0.0;
                        // tree #187
                        votes[10] += 0.0025278558;
                        // tree #188
                        if (x[10] <= 0.19590232) {
                            votes[0] += -0.04641618;
                        }

                        else {
                            votes[0] += 0.14212917;
                        }

                        // tree #189
                        votes[1] += -0.003779155;
                        // tree #190
                        votes[2] += -0.0;
                        // tree #191
                        votes[3] += 0.00020443765;
                        // tree #192
                        votes[4] += 0.02191956;
                        // tree #193
                        votes[5] += -0.0013239023;
                        // tree #194
                        votes[6] += -0.0;
                        // tree #195
                        votes[7] += -0.024826743;
                        // tree #196
                        votes[8] += -0.009452036;
                        // tree #197
                        votes[9] += -0.0;
                        // tree #198
                        votes[10] += -0.0;
                        // tree #199
                        votes[0] += -0.0005787095;
                        // tree #200
                        votes[1] += 0.00037163877;
                        // tree #201
                        votes[2] += -0.005212108;
                        // tree #202
                        votes[3] += -0.0;
                        // tree #203
                        votes[4] += 0.0034078008;
                        // tree #204
                        if (x[6] <= -0.89603496) {
                            votes[5] += 0.10363069;
                        }

                        else {
                            votes[5] += -0.07355801;
                        }

                        // tree #205
                        votes[6] += 0.008798829;
                        // tree #206
                        if (x[17] <= -0.4176209) {
                            votes[7] += 0.10373367;
                        }

                        else {
                            votes[7] += -0.06298336;
                        }

                        // tree #207
                        votes[8] += -0.00909187;
                        // tree #208
                        votes[9] += 0.0063459645;
                        // tree #209
                        votes[10] += -0.0;
                        // tree #210
                        votes[0] += -0.005809513;
                        // tree #211
                        if (x[15] <= 0.76950884) {
                            votes[1] += -0.0723224;
                        }

                        else {
                            votes[1] += 0.09677868;
                        }

                        // tree #212
                        votes[2] += -0.014197188;
                        // tree #213
                        votes[3] += -0.0;
                        // tree #214
                        votes[4] += -0.0010604189;
                        // tree #215
                        votes[5] += 0.005302539;
                        // tree #216
                        votes[6] += 0.008141863;
                        // tree #217
                        if (x[9] <= 0.4155863) {
                            votes[7] += -0.09833083;
                        }

                        else {
                            votes[7] += 0.0958256;
                        }

                        // tree #218
                        if (x[1] <= -1.0032073) {
                            votes[8] += 0.081786156;
                        }

                        else {
                            votes[8] += -0.09325741;
                        }

                        // tree #219
                        votes[9] += -0.0;
                        // tree #220
                        votes[10] += 0.0032699436;
                        // tree #221
                        if (x[8] <= 0.4095803) {
                            votes[0] += -0.07277701;
                        }

                        else {
                            votes[0] += 0.11173628;
                        }

                        // tree #222
                        if (x[8] <= 1.1354753) {
                            votes[1] += -0.07778963;
                        }

                        else {
                            votes[1] += 0.15201423;
                        }

                        // tree #223
                        votes[2] += -0.028575255;
                        // tree #224
                        votes[3] += -0.0038925987;
                        // tree #225
                        if (x[1] <= 0.76318914) {
                            votes[4] += -0.103313684;
                        }

                        else {
                            votes[4] += 0.09300103;
                        }

                        // tree #226
                        votes[5] += -0.012334636;
                        // tree #227
                        votes[6] += -0.015335143;
                        // tree #228
                        if (x[12] <= 0.8991631) {
                            votes[7] += -0.072024755;
                        }

                        else {
                            votes[7] += 0.11197358;
                        }

                        // tree #229
                        votes[8] += -0.03325655;
                        // tree #230
                        votes[9] += 0.0018386157;
                        // tree #231
                        votes[10] += 0.02384613;
                        // tree #232
                        votes[0] += -0.015333223;
                        // tree #233
                        votes[1] += 0.01750383;
                        // tree #234
                        votes[2] += -0.007718235;
                        // tree #235
                        if (x[0] <= 1.202149) {
                            votes[3] += -0.12730357;
                        }

                        else {
                            votes[3] += 0.087984815;
                        }

                        // tree #236
                        votes[4] += 0.010715204;
                        // tree #237
                        if (x[3] <= 0.6188084) {
                            votes[5] += -0.09448477;
                        }

                        else {
                            votes[5] += 0.083009005;
                        }

                        // tree #238
                        if (x[9] <= 0.94134784) {
                            votes[6] += -0.081732444;
                        }

                        else {
                            votes[6] += 0.11940865;
                        }

                        // tree #239
                        votes[7] += -0.012650782;
                        // tree #240
                        votes[8] += 0.0014637749;
                        // tree #241
                        votes[9] += -0.0029264102;
                        // tree #242
                        votes[10] += -0.01281894;
                        // return argmax of votes
                        uint8_t classIdx = 0;
                        float maxVotes = votes[0];

                        for (uint8_t i = 1; i < 11; i++) {
                            if (votes[i] > maxVotes) {
                                classIdx = i;
                                maxVotes = votes[i];
                            }
                        }

                        return classIdx;
                    }

                protected:
                };
            }
        }
    }

#endif // BSL_MODEL_H_20250713_201152
