/*
 * BSL Gesture Recognition Model - Arduino Optimized
 *
 * Model Type: XGBoost_Arduino
 * Timestamp:  20250717_232033
 * Generated with micromlgen for Arduino compatibility
 * File Size: Optimized for <1MB Arduino memory constraints
 */

#ifndef BSL_MODEL_H_20250717_232033
#define BSL_MODEL_H_20250717_232033

#include <math.h>

// Feature count for normalization
const int BSL_MODEL_FEATURES = 20;

// Normalization parameters (StandardScaler)
const float scaler_mean[BSL_MODEL_FEATURES] = { 236.43887165f, 92.39925808f, 68.31279621f, 340.28182297f, 152.37936569f, 61.17299113f, 61.57183206f, 226.23237110f, 328.61752741f, 107.43810835f, 125.86835176f, 440.40250850f, 316.69635454f, 128.98405917f, 63.49782182f, 428.19369046f, 101.83935373f, 73.44464279f, 0.65034229f, 187.40944995f };
const float scaler_scale[BSL_MODEL_FEATURES] = { 135.30685827f, 67.06061261f, 76.61275307f, 168.41752247f, 110.80163096f, 86.67551891f, 35.16740834f, 190.60674057f, 154.65881356f, 79.40660419f, 98.04583070f, 183.85659880f, 139.38753003f, 71.97550737f, 44.95091841f, 177.07511049f, 81.46413449f, 52.91555341f, 3.46432243f, 124.83287112f };

// Normalization function
void normalize_features(float* features, int length) {
    for (int i = 0; i < length; i++) {
        features[i] = (features[i] - scaler_mean[i]) / scaler_scale[i];
    }
}

// Generated XGBoost model code
#pragma once
#include <cstdarg>
namespace Eloquent {
    namespace ML {
        namespace Port {
            class XGBClassifier {
                public:
                    /**
                    * Predict class for features vector
                    */
                    int predict(float *x) {
                        float votes[11] = { 0.0f };
                        // tree #1
                        if (x[5] <= -0.348894) {
                            votes[0] += -0.12237091;
                        }

                        else {
                            votes[0] += 0.27658963;
                        }

                        // tree #2
                        if (x[11] <= 0.7048836) {
                            votes[1] += -0.13745134;
                        }

                        else {
                            if (x[2] <= -0.28629708) {
                                votes[1] += -0.025289897;
                            }

                            else {
                                votes[1] += 0.49231035;
                            }
                        }

                        // tree #3
                        if (x[16] <= 0.13932002) {
                            votes[2] += -0.13706195;
                        }

                        else {
                            votes[2] += 0.09191397;
                        }

                        // tree #4
                        if (x[0] <= 1.0102608) {
                            if (x[1] <= 0.46642196) {
                                votes[3] += -0.13653786;
                            }

                            else {
                                votes[3] += 0.043426596;
                            }
                        }

                        else {
                            votes[3] += 0.49231035;
                        }

                        // tree #5
                        if (x[12] <= -0.9703195) {
                            votes[4] += 0.5421863;
                        }

                        else {
                            votes[4] += -0.13862471;
                        }

                        // tree #6
                        if (x[5] <= 1.1085007) {
                            votes[5] += -0.13784918;
                        }

                        else {
                            votes[5] += 0.59803855;
                        }

                        // tree #7
                        if (x[4] <= 0.038109586) {
                            votes[6] += -0.13846241;
                        }

                        else {
                            votes[6] += 0.44243437;
                        }

                        // tree #8
                        if (x[8] <= 0.77264535) {
                            votes[7] += -0.13828866;
                        }

                        else {
                            votes[7] += 0.29724783;
                        }

                        // tree #9
                        if (x[3] <= -0.25240305) {
                            votes[8] += 0.28779715;
                        }

                        else {
                            votes[8] += -0.13774106;
                        }

                        // tree #10
                        if (x[3] <= -0.57654333) {
                            votes[9] += 0.2638031;
                        }

                        else {
                            votes[9] += -0.13815013;
                        }

                        // tree #11
                        if (x[7] <= -0.6315825) {
                            votes[10] += 0.44243437;
                        }

                        else {
                            votes[10] += -0.13850401;
                        }

                        // tree #12
                        if (x[7] <= -0.36735454) {
                            votes[0] += -0.13544214;
                        }

                        else {
                            votes[0] += 0.1727171;
                        }

                        // tree #13
                        if (x[9] <= 1.218536) {
                            if (x[8] <= 0.98059964) {
                                votes[1] += -0.13619965;
                            }

                            else {
                                votes[1] += 0.08841862;
                            }
                        }

                        else {
                            votes[1] += 0.33652383;
                        }

                        // tree #14
                        if (x[14] <= 0.24981582) {
                            votes[2] += -0.06862393;
                        }

                        else {
                            votes[2] += 0.24486175;
                        }

                        // tree #15
                        if (x[0] <= 1.202149) {
                            votes[3] += -0.10000813;
                        }

                        else {
                            votes[3] += 0.23664565;
                        }

                        // tree #16
                        if (x[15] <= -1.2316108) {
                            votes[4] += 0.3233804;
                        }

                        else {
                            votes[4] += -0.13633773;
                        }

                        // tree #17
                        if (x[7] <= 1.3031483) {
                            votes[5] += -0.13646477;
                        }

                        else {
                            votes[5] += 0.25460717;
                        }

                        // tree #18
                        if (x[4] <= 0.6045464) {
                            votes[6] += -0.13835299;
                        }

                        else {
                            votes[6] += 0.5338815;
                        }

                        // tree #19
                        if (x[15] <= 0.73023427) {
                            votes[7] += -0.12451903;
                        }

                        else {
                            votes[7] += 0.4700014;
                        }

                        // tree #20
                        if (x[12] <= 0.57186985) {
                            votes[8] += -0.13795955;
                        }

                        else {
                            votes[8] += 0.27818623;
                        }

                        // tree #21
                        if (x[3] <= -0.57654333) {
                            votes[9] += 0.25547844;
                        }

                        else {
                            votes[9] += -0.13589872;
                        }

                        // tree #22
                        if (x[13] <= -1.5884366) {
                            votes[10] += 0.44920158;
                        }

                        else {
                            votes[10] += -0.13934992;
                        }

                        // tree #23
                        if (x[7] <= -0.37888074) {
                            votes[0] += -0.13367452;
                        }

                        else {
                            votes[0] += 0.16003127;
                        }

                        // tree #24
                        if (x[9] <= 1.2454867) {
                            votes[1] += -0.11026419;
                        }

                        else {
                            votes[1] += 0.21780778;
                        }

                        // tree #25
                        if (x[11] <= 0.24602792) {
                            if (x[12] <= 0.13817707) {
                                votes[2] += -0.13121495;
                            }

                            else {
                                votes[2] += 0.45129067;
                            }
                        }

                        else {
                            votes[2] += -0.13412493;
                        }

                        // tree #26
                        if (x[4] <= -0.41934) {
                            if (x[3] <= 0.29295877) {
                                votes[3] += -0.12450687;
                            }

                            else {
                                votes[3] += 0.29043502;
                            }
                        }

                        else {
                            votes[3] += -0.13678996;
                        }

                        // tree #27
                        if (x[1] <= 0.70272785) {
                            votes[4] += -0.1390013;
                        }

                        else {
                            votes[4] += 0.30809468;
                        }

                        // tree #28
                        if (x[7] <= 1.3031483) {
                            votes[5] += -0.13492747;
                        }

                        else {
                            if (x[4] <= 1.8818715) {
                                votes[5] += 0.65347725;
                            }

                            else {
                                votes[5] += -0.13696636;
                            }
                        }

                        // tree #29
                        if (x[7] <= 1.8489332) {
                            votes[6] += -0.11111327;
                        }

                        else {
                            votes[6] += 0.46172193;
                        }

                        // tree #30
                        if (x[8] <= 0.87471855) {
                            votes[7] += -0.1357883;
                        }

                        else {
                            votes[7] += 0.27357617;
                        }

                        // tree #31
                        if (x[1] <= -0.7936132) {
                            votes[8] += 0.25993353;
                        }

                        else {
                            votes[8] += -0.13669768;
                        }

                        // tree #32
                        if (x[15] <= 0.19467998) {
                            votes[9] += 0.18707742;
                        }

                        else {
                            votes[9] += -0.119802944;
                        }

                        // tree #33
                        if (x[1] <= -1.2675421) {
                            votes[10] += 0.62132126;
                        }

                        else {
                            votes[10] += -0.13878118;
                        }

                        // tree #34
                        if (x[5] <= -0.32501292) {
                            votes[0] += -0.11227035;
                        }

                        else {
                            if (x[15] <= 0.59606755) {
                                votes[0] += 0.4400343;
                            }

                            else {
                                votes[0] += -0.13129514;
                            }
                        }

                        // tree #35
                        if (x[15] <= 0.7668563) {
                            if (x[9] <= 1.0519812) {
                                votes[1] += -0.13371013;
                            }

                            else {
                                votes[1] += 0.032016028;
                            }
                        }

                        else {
                            votes[1] += 0.2812807;
                        }

                        // tree #36
                        if (x[0] <= 0.53754187) {
                            votes[2] += -0.11858362;
                        }

                        else {
                            votes[2] += 0.14141664;
                        }

                        // tree #37
                        if (x[12] <= 0.021015162) {
                            if (x[12] <= -0.9078678) {
                                votes[3] += -0.13141859;
                            }

                            else {
                                votes[3] += 0.3750553;
                            }
                        }

                        else {
                            votes[3] += -0.13577244;
                        }

                        // tree #38
                        if (x[15] <= -1.2227976) {
                            votes[4] += 0.2055574;
                        }

                        else {
                            votes[4] += -0.13455594;
                        }

                        // tree #39
                        if (x[6] <= -0.48027462) {
                            if (x[1] <= 0.6548589) {
                                votes[5] += -0.031321965;
                            }

                            else {
                                votes[5] += 0.32615677;
                            }
                        }

                        else {
                            votes[5] += -0.13564827;
                        }

                        // tree #40
                        if (x[4] <= 1.9603791) {
                            votes[6] += -0.13775711;
                        }

                        else {
                            votes[6] += 0.40931672;
                        }

                        // tree #41
                        if (x[15] <= 0.74375355) {
                            votes[7] += -0.1358911;
                        }

                        else {
                            votes[7] += 0.26207352;
                        }

                        // tree #42
                        if (x[12] <= 0.67071676) {
                            votes[8] += -0.13697347;
                        }

                        else {
                            if (x[8] <= 0.19072708) {
                                votes[8] += 0.5145493;
                            }

                            else {
                                votes[8] += -0.13189223;
                            }
                        }

                        // tree #43
                        if (x[0] <= -0.5771108) {
                            if (x[0] <= -1.244513) {
                                votes[9] += -0.08107267;
                            }

                            else {
                                votes[9] += 0.37051815;
                            }
                        }

                        else {
                            votes[9] += -0.13369678;
                        }

                        // tree #44
                        if (x[15] <= -1.8890104) {
                            votes[10] += 0.3581326;
                        }

                        else {
                            votes[10] += -0.13640085;
                        }

                        // tree #45
                        if (x[7] <= -0.36735454) {
                            votes[0] += -0.12984005;
                        }

                        else {
                            if (x[15] <= 0.5511457) {
                                votes[0] += 0.35366422;
                            }

                            else {
                                votes[0] += -0.049763806;
                            }
                        }

                        // tree #46
                        if (x[17] <= 0.60700464) {
                            votes[1] += -0.11773693;
                        }

                        else {
                            if (x[7] <= -0.41735435) {
                                votes[1] += 0.41584128;
                            }

                            else {
                                votes[1] += -0.0;
                            }
                        }

                        // tree #47
                        if (x[6] <= 0.34564507) {
                            votes[2] += -0.13341592;
                        }

                        else {
                            if (x[1] <= -0.4592062) {
                                votes[2] += -0.12444449;
                            }

                            else {
                                votes[2] += 0.28268287;
                            }
                        }

                        // tree #48
                        if (x[12] <= -0.10180135) {
                            if (x[12] <= -0.7739736) {
                                votes[3] += -0.04039051;
                            }

                            else {
                                votes[3] += 0.25461453;
                            }
                        }

                        else {
                            votes[3] += -0.13315462;
                        }

                        // tree #49
                        if (x[15] <= -1.1542597) {
                            votes[4] += 0.17865789;
                        }

                        else {
                            votes[4] += -0.13193303;
                        }

                        // tree #50
                        if (x[7] <= 1.2661054) {
                            votes[5] += -0.13146605;
                        }

                        else {
                            if (x[8] <= 0.13796774) {
                                votes[5] += 0.35905632;
                            }

                            else {
                                votes[5] += 0.011414147;
                            }
                        }

                        // tree #51
                        if (x[4] <= 1.9603791) {
                            votes[6] += -0.13558622;
                        }

                        else {
                            votes[6] += 0.22068599;
                        }

                        // tree #52
                        if (x[8] <= 1.2655456) {
                            votes[7] += -0.10551052;
                        }

                        else {
                            votes[7] += 0.22854191;
                        }

                        // tree #53
                        if (x[12] <= 0.6319324) {
                            votes[8] += -0.13324094;
                        }

                        else {
                            if (x[8] <= 0.14345783) {
                                votes[8] += 0.30609077;
                            }

                            else {
                                votes[8] += -0.13096705;
                            }
                        }

                        // tree #54
                        if (x[15] <= 0.19467998) {
                            if (x[19] <= -0.29518542) {
                                votes[9] += -0.13127524;
                            }

                            else {
                                votes[9] += 0.37530214;
                            }
                        }

                        else {
                            votes[9] += -0.13422145;
                        }

                        // tree #55
                        if (x[1] <= -1.1506033) {
                            votes[10] += 0.2834409;
                        }

                        else {
                            votes[10] += -0.13591553;
                        }

                        // tree #56
                        if (x[5] <= -0.348894) {
                            votes[0] += -0.1260485;
                        }

                        else {
                            if (x[0] <= 0.074221246) {
                                votes[0] += -0.09071743;
                            }

                            else {
                                votes[0] += 0.23634511;
                            }
                        }

                        // tree #57
                        if (x[15] <= 0.7590698) {
                            votes[1] += -0.07449099;
                        }

                        else {
                            votes[1] += 0.16614696;
                        }

                        // tree #58
                        if (x[16] <= 0.7001934) {
                            votes[2] += -0.09999795;
                        }

                        else {
                            votes[2] += 0.16824836;
                        }

                        // tree #59
                        if (x[0] <= 1.202149) {
                            votes[3] += -0.08356171;
                        }

                        else {
                            votes[3] += 0.18070349;
                        }

                        // tree #60
                        if (x[1] <= 0.53095853) {
                            votes[4] += -0.119808614;
                        }

                        else {
                            votes[4] += 0.13170542;
                        }

                        // tree #61
                        if (x[17] <= 0.99474454) {
                            votes[5] += -0.11381065;
                        }

                        else {
                            votes[5] += 0.14203936;
                        }

                        // tree #62
                        if (x[4] <= 1.9213263) {
                            votes[6] += -0.13096575;
                        }

                        else {
                            votes[6] += 0.2076516;
                        }

                        // tree #63
                        if (x[15] <= 0.6717075) {
                            votes[7] += -0.13119508;
                        }

                        else {
                            if (x[1] <= -0.07562583) {
                                votes[7] += 0.3658381;
                            }

                            else {
                                votes[7] += -0.0;
                            }
                        }

                        // tree #64
                        if (x[1] <= -0.7936132) {
                            if (x[12] <= 0.833159) {
                                votes[8] += -0.0030579413;
                            }

                            else {
                                votes[8] += 0.18251038;
                            }
                        }

                        else {
                            votes[8] += -0.13066499;
                        }

                        // tree #65
                        if (x[3] <= -0.5482047) {
                            if (x[2] <= -0.35096708) {
                                votes[9] += -0.0;
                            }

                            else {
                                votes[9] += 0.23109551;
                            }
                        }

                        else {
                            votes[9] += -0.12954123;
                        }

                        // tree #66
                        if (x[15] <= -1.8815662) {
                            votes[10] += 0.24024495;
                        }

                        else {
                            votes[10] += -0.13286978;
                        }

                        // tree #67
                        if (x[4] <= -0.3124842) {
                            votes[0] += -0.1295611;
                        }

                        else {
                            if (x[15] <= 0.49450138) {
                                votes[0] += 0.3019461;
                            }

                            else {
                                votes[0] += -0.021643538;
                            }
                        }

                        // tree #68
                        if (x[2] <= -0.0058627287) {
                            votes[1] += -0.100247264;
                        }

                        else {
                            votes[1] += 0.10586893;
                        }

                        // tree #69
                        if (x[14] <= 0.24981582) {
                            votes[2] += -0.11319961;
                        }

                        else {
                            votes[2] += 0.054555897;
                        }

                        // tree #70
                        if (x[0] <= 1.2393339) {
                            votes[3] += -0.08632266;
                        }

                        else {
                            votes[3] += 0.16562217;
                        }

                        // tree #71
                        if (x[13] <= -1.528353) {
                            votes[4] += 0.18764797;
                        }

                        else {
                            votes[4] += -0.12972437;
                        }

                        // tree #72
                        if (x[7] <= 1.5516369) {
                            votes[5] += -0.12854598;
                        }

                        else {
                            votes[5] += 0.15899728;
                        }

                        // tree #73
                        if (x[4] <= 1.9603791) {
                            votes[6] += -0.13018233;
                        }

                        else {
                            votes[6] += 0.12349229;
                        }

                        // tree #74
                        if (x[9] <= 0.4155863) {
                            votes[7] += -0.1381787;
                        }

                        else {
                            if (x[5] <= -0.5002165) {
                                votes[7] += 0.29657155;
                            }

                            else {
                                votes[7] += -0.04767985;
                            }
                        }

                        // tree #75
                        if (x[3] <= -0.4329608) {
                            if (x[12] <= 0.7069358) {
                                votes[8] += -0.03641202;
                            }

                            else {
                                votes[8] += 0.16322364;
                            }
                        }

                        else {
                            votes[8] += -0.13132392;
                        }

                        // tree #76
                        if (x[3] <= -0.574924) {
                            if (x[14] <= -0.40072536) {
                                votes[9] += 0.19890259;
                            }

                            else {
                                votes[9] += -0.0;
                            }
                        }

                        else {
                            votes[9] += -0.12709303;
                        }

                        // tree #77
                        if (x[9] <= -1.2307984) {
                            votes[10] += 0.20797779;
                        }

                        else {
                            votes[10] += -0.13226923;
                        }

                        // tree #78
                        if (x[2] <= 0.34517464) {
                            votes[0] += -0.08798409;
                        }

                        else {
                            votes[0] += 0.10360479;
                        }

                        // tree #79
                        if (x[17] <= 0.61155194) {
                            votes[1] += -0.110388264;
                        }

                        else {
                            if (x[5] <= -0.3945311) {
                                votes[1] += 0.23684213;
                            }

                            else {
                                votes[1] += -0.0;
                            }
                        }

                        // tree #80
                        if (x[14] <= 0.7372161) {
                            votes[2] += -0.052603163;
                        }

                        else {
                            votes[2] += 0.21906687;
                        }

                        // tree #81
                        if (x[7] <= -0.56353825) {
                            votes[3] += 0.07930723;
                        }

                        else {
                            votes[3] += -0.111761846;
                        }

                        // tree #82
                        if (x[15] <= -1.2227976) {
                            if (x[0] <= 0.27550447) {
                                votes[4] += -0.030918254;
                            }

                            else {
                                votes[4] += 0.26701546;
                            }
                        }

                        else {
                            votes[4] += -0.12784253;
                        }

                        // tree #83
                        if (x[19] <= 0.85423017) {
                            votes[5] += -0.12629783;
                        }

                        else {
                            votes[5] += 0.11969737;
                        }

                        // tree #84
                        if (x[7] <= 1.8342274) {
                            votes[6] += -0.1346919;
                        }

                        else {
                            votes[6] += 0.15240143;
                        }

                        // tree #85
                        if (x[15] <= 0.67145073) {
                            votes[7] += -0.10471945;
                        }

                        else {
                            if (x[1] <= -0.47867304) {
                                votes[7] += 0.2675411;
                            }

                            else {
                                votes[7] += 0.040234894;
                            }
                        }

                        // tree #86
                        if (x[1] <= -0.63085675) {
                            votes[8] += 0.058819674;
                        }

                        else {
                            votes[8] += -0.1279911;
                        }

                        // tree #87
                        if (x[3] <= -0.57654333) {
                            votes[9] += 0.13072994;
                        }

                        else {
                            votes[9] += -0.12515579;
                        }

                        // tree #88
                        if (x[17] <= -1.3648555) {
                            votes[10] += 0.1739058;
                        }

                        else {
                            votes[10] += -0.12905309;
                        }

                        // tree #89
                        if (x[7] <= -0.36719555) {
                            votes[0] += -0.120791696;
                        }

                        else {
                            if (x[6] <= 0.10997575) {
                                votes[0] += -0.0005727928;
                            }

                            else {
                                votes[0] += 0.2775558;
                            }
                        }

                        // tree #90
                        if (x[1] <= -0.41929168) {
                            votes[1] += -0.13251449;
                        }

                        else {
                            if (x[11] <= 0.8163835) {
                                votes[1] += -0.06026868;
                            }

                            else {
                                votes[1] += 0.16990456;
                            }
                        }

                        // tree #91
                        if (x[12] <= 0.13817707) {
                            votes[2] += -0.12725753;
                        }

                        else {
                            if (x[11] <= 0.35414907) {
                                votes[2] += 0.20706086;
                            }

                            else {
                                votes[2] += -0.12680656;
                            }
                        }

                        // tree #92
                        if (x[12] <= 0.025204485) {
                            votes[3] += 0.053701773;
                        }

                        else {
                            votes[3] += -0.12665029;
                        }

                        // tree #93
                        if (x[19] <= -1.394352) {
                            votes[4] += 0.1195079;
                        }

                        else {
                            votes[4] += -0.12613668;
                        }

                        // tree #94
                        if (x[7] <= 1.3031483) {
                            votes[5] += -0.12515797;
                        }

                        else {
                            if (x[4] <= 0.80727834) {
                                votes[5] += 0.24118784;
                            }

                            else {
                                votes[5] += -0.031221071;
                            }
                        }

                        // tree #95
                        if (x[7] <= 1.7360561) {
                            votes[6] += -0.12538879;
                        }

                        else {
                            votes[6] += 0.14856558;
                        }

                        // tree #96
                        if (x[1] <= -0.08225313) {
                            votes[7] += 0.1188017;
                        }

                        else {
                            votes[7] += -0.11869549;
                        }

                        // tree #97
                        if (x[12] <= 0.67071676) {
                            votes[8] += -0.1271792;
                        }

                        else {
                            if (x[8] <= 0.13842623) {
                                votes[8] += 0.15701398;
                            }

                            else {
                                votes[8] += -0.048307754;
                            }
                        }

                        // tree #98
                        if (x[0] <= -0.5771108) {
                            if (x[2] <= -0.34127647) {
                                votes[9] += -0.0055231405;
                            }

                            else {
                                votes[9] += 0.20325083;
                            }
                        }

                        else {
                            votes[9] += -0.1247132;
                        }

                        // tree #99
                        if (x[9] <= -1.2093616) {
                            votes[10] += 0.18552145;
                        }

                        else {
                            votes[10] += -0.12721546;
                        }

                        // tree #100
                        if (x[5] <= -0.348894) {
                            votes[0] += -0.12199843;
                        }

                        else {
                            if (x[0] <= 0.2596001) {
                                votes[0] += -0.043615483;
                            }

                            else {
                                votes[0] += 0.16533867;
                            }
                        }

                        // tree #101
                        if (x[8] <= 1.1354753) {
                            if (x[9] <= 1.2677059) {
                                votes[1] += -0.12896523;
                            }

                            else {
                                votes[1] += 0.06081365;
                            }
                        }

                        else {
                            votes[1] += 0.14653565;
                        }

                        // tree #102
                        if (x[19] <= 0.557227) {
                            votes[2] += -0.12758745;
                        }

                        else {
                            if (x[9] <= 0.09709513) {
                                votes[2] += 0.1542033;
                            }

                            else {
                                votes[2] += -0.053525876;
                            }
                        }

                        // tree #103
                        if (x[12] <= -0.05958854) {
                            votes[3] += 0.040503416;
                        }

                        else {
                            votes[3] += -0.12423472;
                        }

                        // tree #104
                        if (x[15] <= -1.2939025) {
                            votes[4] += 0.0900818;
                        }

                        else {
                            votes[4] += -0.123306476;
                        }

                        // tree #105
                        if (x[1] <= 0.59565496) {
                            votes[5] += -0.12811771;
                        }

                        else {
                            votes[5] += 0.11222515;
                        }

                        // tree #106
                        if (x[4] <= 1.5004103) {
                            votes[6] += -0.122094005;
                        }

                        else {
                            votes[6] += 0.13592732;
                        }

                        // tree #107
                        if (x[1] <= -0.9226998) {
                            votes[7] += 0.122747146;
                        }

                        else {
                            votes[7] += -0.12051624;
                        }

                        // tree #108
                        if (x[11] <= -0.059793435) {
                            if (x[12] <= 0.73225874) {
                                votes[8] += -0.07603456;
                            }

                            else {
                                votes[8] += 0.17148778;
                            }
                        }

                        else {
                            votes[8] += -0.12665832;
                        }

                        // tree #109
                        if (x[15] <= 0.20888382) {
                            if (x[17] <= 0.29553062) {
                                votes[9] += -0.013744004;
                            }

                            else {
                                votes[9] += 0.18799014;
                            }
                        }

                        else {
                            votes[9] += -0.09976816;
                        }

                        // tree #110
                        if (x[9] <= -1.188381) {
                            votes[10] += 0.17029916;
                        }

                        else {
                            votes[10] += -0.12708388;
                        }

                        // tree #111
                        if (x[15] <= 0.59606755) {
                            if (x[13] <= 0.38727435) {
                                votes[0] += -0.08661674;
                            }

                            else {
                                votes[0] += 0.16398856;
                            }
                        }

                        else {
                            votes[0] += -0.12324036;
                        }

                        // tree #112
                        if (x[11] <= 1.0448225) {
                            if (x[4] <= -0.48305386) {
                                votes[1] += 0.07078953;
                            }

                            else {
                                votes[1] += -0.13115549;
                            }
                        }

                        else {
                            votes[1] += 0.18947642;
                        }

                        // tree #113
                        if (x[15] <= 0.5746762) {
                            votes[2] += -0.107340746;
                        }

                        else {
                            if (x[11] <= -0.09786658) {
                                votes[2] += 0.2019556;
                            }

                            else {
                                votes[2] += -0.007846263;
                            }
                        }

                        // tree #114
                        if (x[3] <= 0.34405833) {
                            votes[3] += -0.12174358;
                        }

                        else {
                            votes[3] += 0.042106222;
                        }

                        // tree #115
                        if (x[15] <= -1.2316108) {
                            votes[4] += 0.10899363;
                        }

                        else {
                            votes[4] += -0.12329376;
                        }

                        // tree #116
                        if (x[1] <= 0.62867117) {
                            votes[5] += -0.12539382;
                        }

                        else {
                            votes[5] += 0.122197084;
                        }

                        // tree #117
                        if (x[7] <= 1.8489332) {
                            votes[6] += -0.11090352;
                        }

                        else {
                            votes[6] += 0.16891958;
                        }

                        // tree #118
                        if (x[8] <= 0.77264535) {
                            votes[7] += -0.124354534;
                        }

                        else {
                            if (x[17] <= 0.61118066) {
                                votes[7] += 0.22028176;
                            }

                            else {
                                votes[7] += -0.062131524;
                            }
                        }

                        // tree #119
                        if (x[3] <= -0.26463816) {
                            votes[8] += 0.06335858;
                        }

                        else {
                            votes[8] += -0.12498371;
                        }

                        // tree #120
                        if (x[15] <= 0.19467998) {
                            votes[9] += 0.04174142;
                        }

                        else {
                            votes[9] += -0.12586024;
                        }

                        // tree #121
                        if (x[1] <= -1.1506033) {
                            votes[10] += 0.15416166;
                        }

                        else {
                            votes[10] += -0.124321;
                        }

                        // tree #122
                        votes[0] += -0.00067616673;
                        // tree #123
                        votes[1] += -0.024813855;
                        // tree #124
                        if (x[19] <= 0.6896465) {
                            votes[2] += -0.107773006;
                        }

                        else {
                            votes[2] += 0.06585909;
                        }

                        // tree #125
                        if (x[12] <= 0.025204485) {
                            votes[3] += 0.044046123;
                        }

                        else {
                            votes[3] += -0.12274781;
                        }

                        // tree #126
                        if (x[1] <= 0.937152) {
                            votes[4] += -0.09027203;
                        }

                        else {
                            votes[4] += 0.11829275;
                        }

                        // tree #127
                        if (x[7] <= 1.5259614) {
                            votes[5] += -0.12219525;
                        }

                        else {
                            votes[5] += 0.071664445;
                        }

                        // tree #128
                        if (x[4] <= 1.9603791) {
                            votes[6] += -0.1225143;
                        }

                        else {
                            votes[6] += 0.12037834;
                        }

                        // tree #129
                        if (x[8] <= 0.77264535) {
                            votes[7] += -0.12004246;
                        }

                        else {
                            if (x[17] <= 0.3617416) {
                                votes[7] += 0.18007883;
                            }

                            else {
                                votes[7] += -0.004391825;
                            }
                        }

                        // tree #130
                        votes[8] += -0.009877257;
                        // tree #131
                        if (x[0] <= -0.5771108) {
                            votes[9] += 0.055878315;
                        }

                        else {
                            votes[9] += -0.1189172;
                        }

                        // tree #132
                        if (x[9] <= -1.2345634) {
                            votes[10] += 0.16841751;
                        }

                        else {
                            votes[10] += -0.12249875;
                        }

                        // tree #133
                        if (x[8] <= 0.4095803) {
                            votes[0] += -0.069114044;
                        }

                        else {
                            votes[0] += 0.11632775;
                        }

                        // tree #134
                        if (x[16] <= -0.20508698) {
                            votes[1] += -0.12590532;
                        }

                        else {
                            votes[1] += 0.07085294;
                        }

                        // tree #135
                        if (x[12] <= 0.3385091) {
                            votes[2] += -0.12291199;
                        }

                        else {
                            if (x[0] <= 0.5592837) {
                                votes[2] += -0.05087904;
                            }

                            else {
                                votes[2] += 0.13771123;
                            }
                        }

                        // tree #136
                        if (x[12] <= 0.021015162) {
                            votes[3] += 0.07131194;
                        }

                        else {
                            votes[3] += -0.120657496;
                        }

                        // tree #137
                        if (x[15] <= -1.2316108) {
                            votes[4] += 0.07416105;
                        }

                        else {
                            votes[4] += -0.11940099;
                        }

                        // tree #138
                        if (x[6] <= -0.66725904) {
                            votes[5] += 0.09932766;
                        }

                        else {
                            votes[5] += -0.10150838;
                        }

                        // tree #139
                        if (x[4] <= 1.9603791) {
                            votes[6] += -0.122069836;
                        }

                        else {
                            votes[6] += 0.10877393;
                        }

                        // tree #140
                        if (x[8] <= 0.77264535) {
                            votes[7] += -0.12195299;
                        }

                        else {
                            votes[7] += 0.07136358;
                        }

                        // tree #141
                        if (x[14] <= -0.15601403) {
                            votes[8] += 0.050699525;
                        }

                        else {
                            votes[8] += -0.12484041;
                        }

                        // tree #142
                        if (x[15] <= 0.19159961) {
                            votes[9] += 0.041000903;
                        }

                        else {
                            votes[9] += -0.1246623;
                        }

                        // tree #143
                        if (x[17] <= -1.3673292) {
                            votes[10] += 0.14078975;
                        }

                        else {
                            votes[10] += -0.119399756;
                        }

                        // tree #144
                        if (x[8] <= 0.4095803) {
                            votes[0] += -0.058264297;
                        }

                        else {
                            votes[0] += 0.11555445;
                        }

                        // tree #145
                        votes[1] += -0.020864757;
                        // tree #146
                        if (x[9] <= 0.122797124) {
                            if (x[19] <= 0.6896465) {
                                votes[2] += -0.021189425;
                            }

                            else {
                                votes[2] += 0.1632813;
                            }
                        }

                        else {
                            votes[2] += -0.086861;
                        }

                        // tree #147
                        votes[3] += -0.01768834;
                        // tree #148
                        if (x[1] <= 0.76318914) {
                            votes[4] += -0.09417761;
                        }

                        else {
                            votes[4] += 0.10253981;
                        }

                        // tree #149
                        if (x[12] <= 0.097416505) {
                            votes[5] += 0.10651297;
                        }

                        else {
                            votes[5] += -0.09916132;
                        }

                        // tree #150
                        votes[6] += 0.01294621;
                        // tree #151
                        if (x[17] <= 0.58011365) {
                            votes[7] += 0.072440565;
                        }

                        else {
                            votes[7] += -0.10276573;
                        }

                        // tree #152
                        if (x[3] <= -0.26463816) {
                            votes[8] += 0.0702362;
                        }

                        else {
                            votes[8] += -0.11977471;
                        }

                        // tree #153
                        if (x[9] <= -0.6298696) {
                            votes[9] += 0.05909039;
                        }

                        else {
                            votes[9] += -0.12078779;
                        }

                        // tree #154
                        votes[10] += -0.0;
                        // tree #155
                        if (x[0] <= -0.0331419) {
                            votes[0] += -0.12541254;
                        }

                        else {
                            if (x[4] <= -0.15336692) {
                                votes[0] += -0.038086876;
                            }

                            else {
                                votes[0] += 0.17256957;
                            }
                        }

                        // tree #156
                        if (x[8] <= 1.1354753) {
                            votes[1] += -0.090369314;
                        }

                        else {
                            votes[1] += 0.07733125;
                        }

                        // tree #157
                        if (x[3] <= 0.11788881) {
                            votes[2] += -0.12300724;
                        }

                        else {
                            votes[2] += 0.05213125;
                        }

                        // tree #158
                        votes[3] += -0.006708052;
                        // tree #159
                        if (x[1] <= 0.5066535) {
                            votes[4] += -0.12141954;
                        }

                        else {
                            votes[4] += 0.08784754;
                        }

                        // tree #160
                        if (x[7] <= 1.3031483) {
                            votes[5] += -0.116693586;
                        }

                        else {
                            votes[5] += 0.10078959;
                        }

                        // tree #161
                        if (x[7] <= 1.8489332) {
                            votes[6] += -0.10287731;
                        }

                        else {
                            votes[6] += 0.11073937;
                        }

                        // tree #162
                        if (x[15] <= 0.73023427) {
                            votes[7] += -0.0972006;
                        }

                        else {
                            votes[7] += 0.07444597;
                        }

                        // tree #163
                        votes[8] += -0.009350545;
                        // tree #164
                        votes[9] += -0.006828433;
                        // tree #165
                        if (x[15] <= -1.8890104) {
                            votes[10] += 0.16670524;
                        }

                        else {
                            votes[10] += -0.11799408;
                        }

                        // tree #166
                        if (x[8] <= 0.4095803) {
                            votes[0] += -0.088295355;
                        }

                        else {
                            votes[0] += 0.087924145;
                        }

                        // tree #167
                        if (x[1] <= -0.058715697) {
                            votes[1] += -0.102499336;
                        }

                        else {
                            if (x[11] <= 1.031472) {
                                votes[1] += -0.005808888;
                            }

                            else {
                                votes[1] += 0.19209678;
                            }
                        }

                        // tree #168
                        votes[2] += -0.0032355671;
                        // tree #169
                        votes[3] += 0.020804023;
                        // tree #170
                        votes[4] += -0.00534782;
                        // tree #171
                        votes[5] += -0.0;
                        // tree #172
                        if (x[7] <= 1.8489332) {
                            votes[6] += -0.085467294;
                        }

                        else {
                            votes[6] += 0.14012092;
                        }

                        // tree #173
                        if (x[1] <= -0.8801323) {
                            votes[7] += 0.11493572;
                        }

                        else {
                            votes[7] += -0.0643583;
                        }

                        // tree #174
                        votes[8] += 0.0133341625;
                        // tree #175
                        votes[9] += -0.0;
                        // tree #176
                        if (x[15] <= -1.8890104) {
                            votes[10] += 0.13345644;
                        }

                        else {
                            votes[10] += -0.11771022;
                        }

                        // tree #177
                        if (x[3] <= 0.3219272) {
                            votes[0] += -0.12870508;
                        }

                        else {
                            votes[0] += 0.07395527;
                        }

                        // tree #178
                        votes[1] += -0.0078908065;
                        // tree #179
                        votes[2] += -0.0;
                        // tree #180
                        votes[3] += -0.024222456;
                        // tree #181
                        votes[4] += -0.0;
                        // tree #182
                        if (x[9] <= 0.7498412) {
                            votes[5] += -0.12177689;
                        }

                        else {
                            votes[5] += 0.09130317;
                        }

                        // tree #183
                        votes[6] += -0.0;
                        // tree #184
                        votes[7] += -0.0;
                        // tree #185
                        votes[8] += 0.018643802;
                        // tree #186
                        votes[9] += -0.0;
                        // tree #187
                        votes[10] += 0.00017710649;
                        // tree #188
                        if (x[10] <= 0.5099175) {
                            votes[0] += -0.041791003;
                        }

                        else {
                            votes[0] += 0.13281801;
                        }

                        // tree #189
                        votes[1] += -0.0038430286;
                        // tree #190
                        votes[2] += -0.0030822586;
                        // tree #191
                        votes[3] += -0.0;
                        // tree #192
                        votes[4] += 0.019372005;
                        // tree #193
                        votes[5] += -0.0;
                        // tree #194
                        votes[6] += -0.0;
                        // tree #195
                        votes[7] += -0.0233223;
                        // tree #196
                        votes[8] += -0.005914964;
                        // tree #197
                        votes[9] += 0.00016399835;
                        // tree #198
                        votes[10] += -0.0;
                        // tree #199
                        votes[0] += -0.0;
                        // tree #200
                        votes[1] += -0.0;
                        // tree #201
                        if (x[12] <= 0.3385091) {
                            votes[2] += -0.12134033;
                        }

                        else {
                            if (x[13] <= 0.24111012) {
                                votes[2] += 0.14910366;
                            }

                            else {
                                votes[2] += -0.04898347;
                            }
                        }

                        // tree #202
                        votes[3] += -0.0;
                        // tree #203
                        if (x[13] <= -1.5546333) {
                            votes[4] += 0.094196014;
                        }

                        else {
                            votes[4] += -0.09477401;
                        }

                        // tree #204
                        votes[5] += 0.009498396;
                        // tree #205
                        votes[6] += 0.007919505;
                        // tree #206
                        if (x[9] <= 0.35964388) {
                            votes[7] += -0.108847365;
                        }

                        else {
                            votes[7] += 0.06319323;
                        }

                        // tree #207
                        votes[8] += -0.007463015;
                        // tree #208
                        votes[9] += 0.011624566;
                        // tree #209
                        votes[10] += -0.0;
                        // tree #210
                        votes[0] += -0.0;
                        // tree #211
                        votes[1] += -0.008655018;
                        // tree #212
                        votes[2] += -0.021317717;
                        // tree #213
                        votes[3] += -0.0;
                        // tree #214
                        votes[4] += -0.0;
                        // tree #215
                        votes[5] += 7.813381e-05;
                        // tree #216
                        votes[6] += -0.0;
                        // tree #217
                        if (x[9] <= 0.4155863) {
                            votes[7] += -0.09117096;
                        }

                        else {
                            votes[7] += 0.08201306;
                        }

                        // tree #218
                        if (x[1] <= -0.98262703) {
                            votes[8] += 0.09094355;
                        }

                        else {
                            votes[8] += -0.091599025;
                        }

                        // tree #219
                        votes[9] += -0.0;
                        // tree #220
                        votes[10] += 0.007253317;
                        // tree #221
                        if (x[4] <= -0.3124842) {
                            votes[0] += -0.09329726;
                        }

                        else {
                            votes[0] += 0.086188965;
                        }

                        // tree #222
                        if (x[8] <= 1.1354753) {
                            votes[1] += -0.07473105;
                        }

                        else {
                            votes[1] += 0.15028049;
                        }

                        // tree #223
                        votes[2] += -0.01711206;
                        // tree #224
                        votes[3] += -0.0030158293;
                        // tree #225
                        votes[4] += -0.0;
                        // tree #226
                        votes[5] += -0.012095024;
                        // tree #227
                        votes[6] += -0.01077786;
                        // tree #228
                        votes[7] += 0.008078299;
                        // tree #229
                        votes[8] += -0.02950081;
                        // tree #230
                        votes[9] += 0.0041845073;
                        // tree #231
                        votes[10] += 0.027783282;
                        // tree #232
                        votes[0] += -0.01679305;
                        // tree #233
                        votes[1] += 0.013069117;
                        // tree #234
                        votes[2] += -0.007570052;
                        // tree #235
                        if (x[0] <= 1.202149) {
                            votes[3] += -0.12230334;
                        }

                        else {
                            votes[3] += 0.0840352;
                        }

                        // tree #236
                        votes[4] += 0.005566789;
                        // tree #237
                        votes[5] += -0.0;
                        // tree #238
                        if (x[9] <= 0.94134784) {
                            votes[6] += -0.07360376;
                        }

                        else {
                            votes[6] += 0.11505084;
                        }

                        // tree #239
                        votes[7] += -0.012390871;
                        // tree #240
                        votes[8] += 0.00109417;
                        // tree #241
                        votes[9] += -0.0;
                        // tree #242
                        votes[10] += -0.004423324;
                        // tree #243
                        votes[0] += 0.008162454;
                        // tree #244
                        if (x[17] <= 0.61155194) {
                            votes[1] += -0.12106701;
                        }

                        else {
                            votes[1] += 0.05463425;
                        }

                        // tree #245
                        votes[2] += 0.007272407;
                        // tree #246
                        votes[3] += 0.017089041;
                        // tree #247
                        votes[4] += 0.013606675;
                        // tree #248
                        votes[5] += -0.0060185078;
                        // tree #249
                        votes[6] += -0.0;
                        // tree #250
                        votes[7] += -0.0;
                        // tree #251
                        votes[8] += -0.00041851794;
                        // tree #252
                        votes[9] += -0.0;
                        // tree #253
                        votes[10] += 0.014819896;
                        // tree #254
                        votes[0] += -0.0056446185;
                        // tree #255
                        votes[1] += -0.008435429;
                        // tree #256
                        votes[2] += -0.0;
                        // tree #257
                        votes[3] += -0.014058947;
                        // tree #258
                        votes[4] += 0.0075173625;
                        // tree #259
                        if (x[19] <= 0.9164952) {
                            votes[5] += -0.082761206;
                        }

                        else {
                            votes[5] += 0.09657545;
                        }

                        // tree #260
                        votes[6] += 0.001294521;
                        // tree #261
                        votes[7] += -0.0;
                        // tree #262
                        votes[8] += -0.014951558;
                        // tree #263
                        votes[9] += -0.0;
                        // tree #264
                        votes[10] += 0.022755807;
                        // tree #265
                        votes[0] += -0.007999511;
                        // tree #266
                        votes[1] += 0.01020094;
                        // tree #267
                        votes[2] += -0.0021328072;
                        // tree #268
                        votes[3] += -0.036560483;
                        // tree #269
                        votes[4] += 0.008913782;
                        // tree #270
                        votes[5] += 0.0071865423;
                        // tree #271
                        votes[6] += -0.0;
                        // tree #272
                        votes[7] += 0.0009658452;
                        // tree #273
                        votes[8] += -0.0;
                        // tree #274
                        votes[9] += -0.030035757;
                        // tree #275
                        votes[10] += 0.005477064;
                        // return argmax of votes
                        uint8_t classIdx = 0;
                        float maxVotes = votes[0];

                        for (uint8_t i = 1; i < 11; i++) {
                            if (votes[i] > maxVotes) {
                                classIdx = i;
                                maxVotes = votes[i];
                            }
                        }

                        return classIdx;
                    }

                protected:
                };
            }
        }
    }

#endif // BSL_MODEL_H_20250717_232033
