/*
 * BSL Gesture Recognition Model - Arduino Optimized
 *
 * Model Type: XGBoost_Arduino
 * Timestamp:  20250717_212432
 * Generated with micromlgen for Arduino compatibility
 * File Size: Optimized for <1MB Arduino memory constraints
 */

#ifndef BSL_MODEL_H_20250717_212432
#define BSL_MODEL_H_20250717_212432

#include <math.h>

// Feature count for normalization
const int BSL_MODEL_FEATURES = 20;

// Normalization parameters (StandardScaler)
const float scaler_mean[BSL_MODEL_FEATURES] = { 236.43887165f, 92.39925808f, 68.31279621f, 340.28182297f, 152.37936569f, 61.17299113f, 61.57183206f, 226.23237110f, 328.61752741f, 107.43810835f, 125.86835176f, 440.40250850f, 316.69635454f, 128.98405917f, 63.49782182f, 428.19369046f, 101.83935373f, 73.44464279f, 0.65034229f, 187.40944995f };
const float scaler_scale[BSL_MODEL_FEATURES] = { 135.30685827f, 67.06061261f, 76.61275307f, 168.41752247f, 110.80163096f, 86.67551891f, 35.16740834f, 190.60674057f, 154.65881356f, 79.40660419f, 98.04583070f, 183.85659880f, 139.38753003f, 71.97550737f, 44.95091841f, 177.07511049f, 81.46413449f, 52.91555341f, 3.46432243f, 124.83287112f };

// Normalization function
void normalize_features(float* features, int length) {
    for (int i = 0; i < length; i++) {
        features[i] = (features[i] - scaler_mean[i]) / scaler_scale[i];
    }
}

// Generated XGBoost model code
#pragma once
#include <cstdarg>
namespace Eloquent {
    namespace ML {
        namespace Port {
            class XGBClassifier {
                public:
                    /**
                    * Predict class for features vector
                    */
                    int predict(float *x) {
                        float votes[11] = { 0.0f };
                        // tree #1
                        if (x[5] <= -0.348894) {
                            votes[0] += -0.0059662163;
                        }

                        else {
                            votes[0] += 0.014389656;
                        }

                        // tree #2
                        if (x[17] <= 0.61155194) {
                            votes[1] += -0.005902578;
                        }

                        else {
                            if (x[4] <= -0.25705343) {
                                votes[1] += 0.022476219;
                            }

                            else {
                                votes[1] += -0.0019876633;
                            }
                        }

                        // tree #3
                        if (x[16] <= 0.13932002) {
                            votes[2] += -0.005857864;
                        }

                        else {
                            if (x[3] <= -0.043416657) {
                                votes[2] += -0.0060239458;
                            }

                            else {
                                votes[2] += 0.01577344;
                            }
                        }

                        // tree #4
                        if (x[12] <= 0.021015162) {
                            if (x[12] <= -0.8987619) {
                                votes[3] += -0.006129285;
                            }

                            else {
                                votes[3] += 0.026678946;
                            }
                        }

                        else {
                            votes[3] += -0.006574029;
                        }

                        // tree #5
                        if (x[12] <= -1.0637195) {
                            votes[4] += 0.029178998;
                        }

                        else {
                            votes[4] += -0.006646355;
                        }

                        // tree #6
                        if (x[7] <= 1.1186497) {
                            votes[5] += -0.0066150096;
                        }

                        else {
                            votes[5] += 0.028633876;
                        }

                        // tree #7
                        if (x[4] <= 0.30949956) {
                            votes[6] += -0.0066422257;
                        }

                        else {
                            votes[6] += 0.022476219;
                        }

                        // tree #8
                        if (x[12] <= 0.8949771) {
                            votes[7] += -0.0055650384;
                        }

                        else {
                            votes[7] += 0.016292924;
                        }

                        // tree #9
                        if (x[0] <= -1.1964293) {
                            votes[8] += 0.0180077;
                        }

                        else {
                            if (x[3] <= -0.16918634) {
                                votes[8] += 0.0023678846;
                            }

                            else {
                                votes[8] += -0.0066035106;
                            }
                        }

                        // tree #10
                        if (x[3] <= -0.57654333) {
                            votes[9] += 0.012953508;
                        }

                        else {
                            votes[9] += -0.0066318633;
                        }

                        // tree #11
                        if (x[13] <= -1.4599311) {
                            votes[10] += 0.029178998;
                        }

                        else {
                            votes[10] += -0.0066408096;
                        }

                        // tree #12
                        if (x[5] <= -0.42823756) {
                            votes[0] += -0.006581792;
                        }

                        else {
                            if (x[15] <= 0.6051375) {
                                votes[0] += 0.025399314;
                            }

                            else {
                                votes[0] += -0.0040677697;
                            }
                        }

                        // tree #13
                        if (x[11] <= 0.64455986) {
                            votes[1] += -0.0065872874;
                        }

                        else {
                            if (x[5] <= 0.19779404) {
                                votes[1] += 0.024252223;
                            }

                            else {
                                votes[1] += -0.0061389855;
                            }
                        }

                        // tree #14
                        if (x[14] <= 0.5275599) {
                            if (x[17] <= 0.069791436) {
                                votes[2] += -0.0064617363;
                            }

                            else {
                                if (x[9] <= 0.56826425) {
                                    votes[2] += 0.006809827;
                                }

                                else {
                                    votes[2] += -0.006090058;
                                }
                            }
                        }

                        else {
                            votes[2] += 0.017868541;
                        }

                        // tree #15
                        if (x[0] <= 0.88631475) {
                            if (x[11] <= -0.8444959) {
                                votes[3] += 0.0011615979;
                            }

                            else {
                                votes[3] += -0.0065896288;
                            }
                        }

                        else {
                            votes[3] += 0.013461633;
                        }

                        // tree #16
                        if (x[15] <= -1.2316108) {
                            votes[4] += 0.025218353;
                        }

                        else {
                            votes[4] += -0.006645646;
                        }

                        // tree #17
                        if (x[7] <= 1.3031483) {
                            votes[5] += -0.0066256085;
                        }

                        else {
                            votes[5] += 0.02309046;
                        }

                        // tree #18
                        if (x[7] <= 1.6859767) {
                            votes[6] += -0.0066456883;
                        }

                        else {
                            votes[6] += 0.029734593;
                        }

                        // tree #19
                        if (x[15] <= 0.73023427) {
                            votes[7] += -0.006106497;
                        }

                        else {
                            votes[7] += 0.02400446;
                        }

                        // tree #20
                        if (x[1] <= -0.7936132) {
                            votes[8] += 0.015074351;
                        }

                        else {
                            votes[8] += -0.0059371633;
                        }

                        // tree #21
                        if (x[3] <= -0.57654333) {
                            votes[9] += 0.013509786;
                        }

                        else {
                            votes[9] += -0.0066187005;
                        }

                        // tree #22
                        if (x[19] <= -1.421904) {
                            votes[10] += 0.02725034;
                        }

                        else {
                            votes[10] += -0.0066561243;
                        }

                        // tree #23
                        if (x[7] <= -0.37888074) {
                            votes[0] += -0.00659375;
                        }

                        else {
                            votes[0] += 0.013226679;
                        }

                        // tree #24
                        if (x[9] <= 1.2374351) {
                            if (x[11] <= 0.9923276) {
                                votes[1] += -0.006604217;
                            }

                            else {
                                votes[1] += 0.0023627721;
                            }
                        }

                        else {
                            votes[1] += 0.016115952;
                        }

                        // tree #25
                        if (x[14] <= 0.48138154) {
                            if (x[6] <= 0.40208507) {
                                votes[2] += -0.0064833965;
                            }

                            else {
                                if (x[1] <= -0.52676606) {
                                    votes[2] += -0.0060588554;
                                }

                                else {
                                    votes[2] += 0.0067601316;
                                }
                            }
                        }

                        else {
                            votes[2] += 0.013761208;
                        }

                        // tree #26
                        if (x[0] <= 0.87523556) {
                            if (x[8] <= -1.295567) {
                                votes[3] += 0.0023298566;
                            }

                            else {
                                votes[3] += -0.0065859226;
                            }
                        }

                        else {
                            votes[3] += 0.013807933;
                        }

                        // tree #27
                        if (x[15] <= -1.2316108) {
                            votes[4] += 0.027583588;
                        }

                        else {
                            votes[4] += -0.0066382512;
                        }

                        // tree #28
                        if (x[7] <= 1.3031483) {
                            votes[5] += -0.0066301515;
                        }

                        else {
                            votes[5] += 0.02555376;
                        }

                        // tree #29
                        if (x[7] <= 1.6940849) {
                            votes[6] += -0.0066395863;
                        }

                        else {
                            votes[6] += 0.028910432;
                        }

                        // tree #30
                        if (x[12] <= 0.8949771) {
                            votes[7] += -0.005541071;
                        }

                        else {
                            votes[7] += 0.014604451;
                        }

                        // tree #31
                        if (x[3] <= -0.26463816) {
                            votes[8] += 0.014060275;
                        }

                        else {
                            votes[8] += -0.006579979;
                        }

                        // tree #32
                        if (x[0] <= -0.5771108) {
                            votes[9] += 0.011590498;
                        }

                        else {
                            votes[9] += -0.0066060103;
                        }

                        // tree #33
                        if (x[12] <= -1.4877846) {
                            votes[10] += 0.03220649;
                        }

                        else {
                            votes[10] += -0.0066375965;
                        }

                        // tree #34
                        if (x[4] <= -0.22197574) {
                            votes[0] += -0.0054003173;
                        }

                        else {
                            votes[0] += 0.014707745;
                        }

                        // tree #35
                        if (x[11] <= 0.7048836) {
                            votes[1] += -0.0065655434;
                        }

                        else {
                            if (x[7] <= 0.32024238) {
                                votes[1] += 0.021905046;
                            }

                            else {
                                votes[1] += -0.0060726176;
                            }
                        }

                        // tree #36
                        if (x[14] <= 0.5309305) {
                            if (x[19] <= 0.557227) {
                                votes[2] += -0.006497644;
                            }

                            else {
                                votes[2] += 0.0010943249;
                            }
                        }

                        else {
                            votes[2] += 0.0135145765;
                        }

                        // tree #37
                        if (x[12] <= 0.021015162) {
                            if (x[12] <= -0.9078678) {
                                votes[3] += -0.0061733895;
                            }

                            else {
                                votes[3] += 0.020595273;
                            }
                        }

                        else {
                            votes[3] += -0.006569549;
                        }

                        // tree #38
                        if (x[15] <= -1.2227976) {
                            votes[4] += 0.026884612;
                        }

                        else {
                            votes[4] += -0.006637768;
                        }

                        // tree #39
                        if (x[7] <= 1.3031483) {
                            votes[5] += -0.0066353483;
                        }

                        else {
                            votes[5] += 0.018392429;
                        }

                        // tree #40
                        if (x[4] <= 0.4854378) {
                            votes[6] += -0.006633159;
                        }

                        else {
                            votes[6] += 0.027358012;
                        }

                        // tree #41
                        if (x[15] <= 0.7139768) {
                            votes[7] += -0.006640295;
                        }

                        else {
                            votes[7] += 0.020277634;
                        }

                        // tree #42
                        if (x[1] <= -0.61562145) {
                            if (x[15] <= 0.41934636) {
                                votes[8] += -0.0018721056;
                            }

                            else {
                                votes[8] += 0.025124447;
                            }
                        }

                        else {
                            votes[8] += -0.0065891403;
                        }

                        // tree #43
                        if (x[3] <= -0.57654333) {
                            votes[9] += 0.014336802;
                        }

                        else {
                            votes[9] += -0.0066045043;
                        }

                        // tree #44
                        if (x[12] <= -1.1947342) {
                            votes[10] += 0.026886983;
                        }

                        else {
                            votes[10] += -0.006643986;
                        }

                        // tree #45
                        if (x[7] <= -0.36735454) {
                            votes[0] += -0.0065871156;
                        }

                        else {
                            if (x[15] <= 0.59606755) {
                                votes[0] += 0.030701011;
                            }

                            else {
                                votes[0] += -0.0060395226;
                            }
                        }

                        // tree #46
                        if (x[11] <= 0.7048836) {
                            votes[1] += -0.006563717;
                        }

                        else {
                            if (x[5] <= 0.51949644) {
                                votes[1] += 0.026366804;
                            }

                            else {
                                votes[1] += -0.0060806787;
                            }
                        }

                        // tree #47
                        if (x[14] <= 0.6236242) {
                            if (x[19] <= 0.5441186) {
                                votes[2] += -0.006503024;
                            }

                            else {
                                votes[2] += 0.000733471;
                            }
                        }

                        else {
                            votes[2] += 0.013870102;
                        }

                        // tree #48
                        if (x[12] <= -0.101012185) {
                            if (x[12] <= -0.8863994) {
                                votes[3] += -0.006097032;
                            }

                            else {
                                votes[3] += 0.027489785;
                            }
                        }

                        else {
                            votes[3] += -0.0065516727;
                        }

                        // tree #49
                        if (x[12] <= -1.0545387) {
                            votes[4] += 0.023099411;
                        }

                        else {
                            votes[4] += -0.006624347;
                        }

                        // tree #50
                        if (x[7] <= 1.3031483) {
                            votes[5] += -0.0066235517;
                        }

                        else {
                            votes[5] += 0.022620315;
                        }

                        // tree #51
                        if (x[7] <= 1.662209) {
                            votes[6] += -0.006633656;
                        }

                        else {
                            votes[6] += 0.025369266;
                        }

                        // tree #52
                        if (x[15] <= 0.73023427) {
                            votes[7] += -0.005575247;
                        }

                        else {
                            votes[7] += 0.0232689;
                        }

                        // tree #53
                        if (x[1] <= -0.7936132) {
                            votes[8] += 0.009970589;
                        }

                        else {
                            votes[8] += -0.006573023;
                        }

                        // tree #54
                        if (x[0] <= -0.5771108) {
                            votes[9] += 0.012442815;
                        }

                        else {
                            votes[9] += -0.006586032;
                        }

                        // tree #55
                        if (x[17] <= -1.3600304) {
                            votes[10] += 0.027512733;
                        }

                        else {
                            votes[10] += -0.006626571;
                        }

                        // tree #56
                        if (x[7] <= -0.3577361) {
                            votes[0] += -0.006571635;
                        }

                        else {
                            votes[0] += 0.011014348;
                        }

                        // tree #57
                        if (x[11] <= 0.7048836) {
                            votes[1] += -0.006535322;
                        }

                        else {
                            if (x[4] <= -0.049301617) {
                                votes[1] += 0.018470338;
                            }

                            else {
                                votes[1] += -0.0060728206;
                            }
                        }

                        // tree #58
                        if (x[0] <= 0.5627718) {
                            if (x[8] <= -0.95732987) {
                                votes[2] += -0.0;
                            }

                            else {
                                votes[2] += -0.0065168454;
                            }
                        }

                        else {
                            votes[2] += 0.010042472;
                        }

                        // tree #59
                        if (x[15] <= 0.45839274) {
                            if (x[1] <= -0.62254494) {
                                votes[3] += -0.0037543164;
                            }

                            else {
                                votes[3] += 0.017760973;
                            }
                        }

                        else {
                            votes[3] += -0.0057870047;
                        }

                        // tree #60
                        if (x[15] <= -1.2316108) {
                            votes[4] += 0.022743572;
                        }

                        else {
                            votes[4] += -0.0066247494;
                        }

                        // tree #61
                        if (x[7] <= 1.5475035) {
                            votes[5] += -0.0066243787;
                        }

                        else {
                            votes[5] += 0.019690521;
                        }

                        // tree #62
                        if (x[4] <= 0.5571152) {
                            votes[6] += -0.006624024;
                        }

                        else {
                            votes[6] += 0.029278617;
                        }

                        // tree #63
                        if (x[15] <= 0.73023427) {
                            votes[7] += -0.0055664536;
                        }

                        else {
                            votes[7] += 0.025895694;
                        }

                        // tree #64
                        if (x[1] <= -0.7936132) {
                            votes[8] += 0.0125848735;
                        }

                        else {
                            votes[8] += -0.00594722;
                        }

                        // tree #65
                        if (x[0] <= -0.5771108) {
                            votes[9] += 0.0132374205;
                        }

                        else {
                            votes[9] += -0.006586594;
                        }

                        // tree #66
                        if (x[13] <= -1.5884366) {
                            votes[10] += 0.028945362;
                        }

                        else {
                            votes[10] += -0.0066295057;
                        }

                        // tree #67
                        if (x[7] <= -0.36735454) {
                            votes[0] += -0.0065776515;
                        }

                        else {
                            if (x[15] <= 0.5903347) {
                                votes[0] += 0.027349701;
                            }

                            else {
                                votes[0] += -0.0038989529;
                            }
                        }

                        // tree #68
                        if (x[11] <= 0.76611376) {
                            votes[1] += -0.0065507493;
                        }

                        else {
                            if (x[5] <= -0.094505094) {
                                votes[1] += 0.021050807;
                            }

                            else {
                                votes[1] += -0.0037738443;
                            }
                        }

                        // tree #69
                        if (x[14] <= 0.24981582) {
                            votes[2] += -0.005963552;
                        }

                        else {
                            votes[2] += 0.006515819;
                        }

                        // tree #70
                        if (x[0] <= 1.1774476) {
                            votes[3] += -0.005547978;
                        }

                        else {
                            votes[3] += 0.024629228;
                        }

                        // tree #71
                        if (x[15] <= -1.2316108) {
                            votes[4] += 0.024288256;
                        }

                        else {
                            votes[4] += -0.0066307555;
                        }

                        // tree #72
                        if (x[7] <= 1.3031483) {
                            votes[5] += -0.006611439;
                        }

                        else {
                            votes[5] += 0.022671584;
                        }

                        // tree #73
                        if (x[4] <= 0.49056163) {
                            votes[6] += -0.006621656;
                        }

                        else {
                            votes[6] += 0.019928206;
                        }

                        // tree #74
                        if (x[15] <= 0.73023427) {
                            votes[7] += -0.0055416557;
                        }

                        else {
                            votes[7] += 0.02327147;
                        }

                        // tree #75
                        if (x[3] <= -0.44933426) {
                            if (x[13] <= -0.11611688) {
                                votes[8] += -0.0014830745;
                            }

                            else {
                                votes[8] += 0.022948511;
                            }
                        }

                        else {
                            votes[8] += -0.0065834536;
                        }

                        // tree #76
                        if (x[15] <= 0.20888382) {
                            if (x[12] <= -1.1947342) {
                                votes[9] += -0.0060686786;
                            }

                            else {
                                votes[9] += 0.029206252;
                            }
                        }

                        else {
                            votes[9] += -0.0059126844;
                        }

                        // tree #77
                        if (x[9] <= -1.0470111) {
                            votes[10] += 0.022785489;
                        }

                        else {
                            votes[10] += -0.0066257576;
                        }

                        // tree #78
                        if (x[4] <= -0.22959378) {
                            votes[0] += -0.0065832883;
                        }

                        else {
                            votes[0] += 0.008870337;
                        }

                        // tree #79
                        if (x[9] <= 1.218536) {
                            if (x[8] <= 0.96767384) {
                                votes[1] += -0.0065758056;
                            }

                            else {
                                votes[1] += 0.0046059424;
                            }
                        }

                        else {
                            votes[1] += 0.020557022;
                        }

                        // tree #80
                        if (x[14] <= 0.48845997) {
                            if (x[19] <= 0.557227) {
                                votes[2] += -0.00651229;
                            }

                            else {
                                votes[2] += 0.0013539576;
                            }
                        }

                        else {
                            votes[2] += 0.02010394;
                        }

                        // tree #81
                        if (x[3] <= 0.6093622) {
                            votes[3] += -0.0054212455;
                        }

                        else {
                            votes[3] += 0.010095655;
                        }

                        // tree #82
                        if (x[15] <= -1.2316108) {
                            votes[4] += 0.02366316;
                        }

                        else {
                            votes[4] += -0.0066246665;
                        }

                        // tree #83
                        if (x[7] <= 1.3031483) {
                            votes[5] += -0.0066058524;
                        }

                        else {
                            votes[5] += 0.024368586;
                        }

                        // tree #84
                        if (x[7] <= 1.7212708) {
                            votes[6] += -0.0066093807;
                        }

                        else {
                            votes[6] += 0.026912214;
                        }

                        // tree #85
                        if (x[15] <= 0.73023427) {
                            votes[7] += -0.0055901217;
                        }

                        else {
                            votes[7] += 0.027649414;
                        }

                        // tree #86
                        if (x[12] <= 0.57186985) {
                            votes[8] += -0.006551594;
                        }

                        else {
                            if (x[9] <= 0.06884481) {
                                votes[8] += 0.03175962;
                            }

                            else {
                                votes[8] += -0.0062215626;
                            }
                        }

                        // tree #87
                        if (x[3] <= -0.57654333) {
                            votes[9] += 0.017767528;
                        }

                        else {
                            votes[9] += -0.00660196;
                        }

                        // tree #88
                        if (x[1] <= -1.108953) {
                            votes[10] += 0.026947368;
                        }

                        else {
                            votes[10] += -0.006632601;
                        }

                        // tree #89
                        if (x[7] <= -0.36719555) {
                            votes[0] += -0.0065398305;
                        }

                        else {
                            if (x[15] <= 0.59384286) {
                                votes[0] += 0.027564436;
                            }

                            else {
                                votes[0] += -0.0015671724;
                            }
                        }

                        // tree #90
                        if (x[9] <= 1.2454867) {
                            if (x[8] <= 1.1285734) {
                                votes[1] += -0.0065925666;
                            }

                            else {
                                votes[1] += 0.0070692133;
                            }
                        }

                        else {
                            votes[1] += 0.018077543;
                        }

                        // tree #91
                        if (x[14] <= 0.48778582) {
                            if (x[19] <= 0.557227) {
                                votes[2] += -0.0065041673;
                            }

                            else {
                                votes[2] += 0.00037438318;
                            }
                        }

                        else {
                            votes[2] += 0.013876681;
                        }

                        // tree #92
                        if (x[12] <= 0.025204485) {
                            if (x[3] <= 0.262371) {
                                votes[3] += -0.0061122254;
                            }

                            else {
                                votes[3] += 0.018575849;
                            }
                        }

                        else {
                            votes[3] += -0.006532428;
                        }

                        // tree #93
                        if (x[13] <= -1.3250089) {
                            votes[4] += 0.02113376;
                        }

                        else {
                            votes[4] += -0.0066044237;
                        }

                        // tree #94
                        if (x[4] <= 0.038109586) {
                            votes[5] += -0.0066060787;
                        }

                        else {
                            votes[5] += 0.016176874;
                        }

                        // tree #95
                        if (x[7] <= 1.7360561) {
                            votes[6] += -0.006626788;
                        }

                        else {
                            votes[6] += 0.031922746;
                        }

                        // tree #96
                        if (x[15] <= 0.7114098) {
                            votes[7] += -0.0054355073;
                        }

                        else {
                            votes[7] += 0.016104585;
                        }

                        // tree #97
                        if (x[1] <= -0.7936132) {
                            votes[8] += 0.011951029;
                        }

                        else {
                            votes[8] += -0.0059664478;
                        }

                        // tree #98
                        if (x[0] <= -0.5771108) {
                            votes[9] += 0.013375989;
                        }

                        else {
                            votes[9] += -0.006590422;
                        }

                        // tree #99
                        if (x[13] <= -1.6102624) {
                            votes[10] += 0.031913783;
                        }

                        else {
                            votes[10] += -0.0066078193;
                        }

                        // tree #100
                        if (x[5] <= -0.42823756) {
                            votes[0] += -0.006539224;
                        }

                        else {
                            if (x[0] <= 0.071997344) {
                                votes[0] += -0.0021415513;
                            }

                            else {
                                votes[0] += 0.02052068;
                            }
                        }

                        // tree #101
                        if (x[9] <= 1.2292342) {
                            if (x[8] <= 1.0883658) {
                                votes[1] += -0.006569535;
                            }

                            else {
                                votes[1] += 0.009176733;
                            }
                        }

                        else {
                            votes[1] += 0.018056717;
                        }

                        // tree #102
                        if (x[0] <= 0.5627718) {
                            if (x[10] <= -0.7819953) {
                                votes[2] += 0.00021798638;
                            }

                            else {
                                votes[2] += -0.0064959237;
                            }
                        }

                        else {
                            votes[2] += 0.011330892;
                        }

                        // tree #103
                        if (x[12] <= -0.05958854) {
                            if (x[12] <= -0.9517567) {
                                votes[3] += -0.0061238427;
                            }

                            else {
                                votes[3] += 0.01812253;
                            }
                        }

                        else {
                            votes[3] += -0.006525206;
                        }

                        // tree #104
                        if (x[15] <= -1.2939025) {
                            votes[4] += 0.023325045;
                        }

                        else {
                            votes[4] += -0.0066056177;
                        }

                        // tree #105
                        if (x[7] <= 1.3031483) {
                            votes[5] += -0.0065958756;
                        }

                        else {
                            votes[5] += 0.019812817;
                        }

                        // tree #106
                        if (x[4] <= 0.6518873) {
                            votes[6] += -0.0066195372;
                        }

                        else {
                            votes[6] += 0.026962781;
                        }

                        // tree #107
                        if (x[15] <= 0.74375355) {
                            votes[7] += -0.005500924;
                        }

                        else {
                            votes[7] += 0.01985986;
                        }

                        // tree #108
                        if (x[1] <= -0.7936132) {
                            if (x[13] <= -0.13434273) {
                                votes[8] += -0.0038758265;
                            }

                            else {
                                votes[8] += 0.019825136;
                            }
                        }

                        else {
                            votes[8] += -0.0065706326;
                        }

                        // tree #109
                        if (x[3] <= -0.57654333) {
                            if (x[0] <= -1.2395837) {
                                votes[9] += -0.0015177374;
                            }

                            else {
                                votes[9] += 0.028093386;
                            }
                        }

                        else {
                            votes[9] += -0.00657595;
                        }

                        // tree #110
                        if (x[12] <= -1.3304067) {
                            votes[10] += 0.02680252;
                        }

                        else {
                            votes[10] += -0.0066163116;
                        }

                        // tree #111
                        if (x[7] <= -0.37450874) {
                            votes[0] += -0.0065589687;
                        }

                        else {
                            votes[0] += 0.010649626;
                        }

                        // tree #112
                        if (x[11] <= 0.6823858) {
                            votes[1] += -0.00652043;
                        }

                        else {
                            if (x[4] <= -0.314668) {
                                votes[1] += 0.028415224;
                            }

                            else {
                                votes[1] += -0.0028546655;
                            }
                        }

                        // tree #113
                        if (x[0] <= 0.5627718) {
                            if (x[14] <= 0.07757409) {
                                votes[2] += -0.006486525;
                            }

                            else {
                                votes[2] += -0.0;
                            }
                        }

                        else {
                            votes[2] += 0.010144861;
                        }

                        // tree #114
                        if (x[0] <= 1.1774476) {
                            if (x[3] <= 0.30717307) {
                                votes[3] += -0.006536327;
                            }

                            else {
                                votes[3] += -0.00013764254;
                            }
                        }

                        else {
                            votes[3] += 0.022969414;
                        }

                        // tree #115
                        if (x[15] <= -1.2316108) {
                            votes[4] += 0.023753429;
                        }

                        else {
                            votes[4] += -0.006606356;
                        }

                        // tree #116
                        if (x[7] <= 1.1527513) {
                            votes[5] += -0.006590368;
                        }

                        else {
                            votes[5] += 0.022208605;
                        }

                        // tree #117
                        if (x[4] <= 0.5922859) {
                            votes[6] += -0.0066151875;
                        }

                        else {
                            votes[6] += 0.026449775;
                        }

                        // tree #118
                        if (x[15] <= 0.73023427) {
                            votes[7] += -0.0055259666;
                        }

                        else {
                            votes[7] += 0.02207291;
                        }

                        // tree #119
                        if (x[3] <= -0.26463816) {
                            votes[8] += 0.01122283;
                        }

                        else {
                            votes[8] += -0.0065589705;
                        }

                        // tree #120
                        if (x[3] <= -0.57654333) {
                            votes[9] += 0.012107675;
                        }

                        else {
                            votes[9] += -0.006584689;
                        }

                        // tree #121
                        if (x[13] <= -1.6378132) {
                            votes[10] += 0.02932565;
                        }

                        else {
                            votes[10] += -0.0066236146;
                        }

                        // tree #122
                        if (x[5] <= -0.348894) {
                            votes[0] += -0.005926423;
                        }

                        else {
                            votes[0] += 0.01123716;
                        }

                        // tree #123
                        if (x[11] <= 0.7048836) {
                            votes[1] += -0.0065239556;
                        }

                        else {
                            if (x[7] <= 0.32024238) {
                                votes[1] += 0.017523618;
                            }

                            else {
                                votes[1] += -0.0060751624;
                            }
                        }

                        // tree #124
                        if (x[19] <= 0.557227) {
                            votes[2] += -0.0065225377;
                        }

                        else {
                            if (x[11] <= 0.33832645) {
                                votes[2] += 0.02280871;
                            }

                            else {
                                votes[2] += -0.0062727244;
                            }
                        }

                        // tree #125
                        if (x[0] <= 1.1885884) {
                            if (x[8] <= -1.3103063) {
                                votes[3] += 0.00013277389;
                            }

                            else {
                                votes[3] += -0.006563261;
                            }
                        }

                        else {
                            votes[3] += 0.02027037;
                        }

                        // tree #126
                        if (x[15] <= -1.2227976) {
                            votes[4] += 0.01827235;
                        }

                        else {
                            votes[4] += -0.0066045653;
                        }

                        // tree #127
                        if (x[7] <= 1.5259614) {
                            votes[5] += -0.0066050203;
                        }

                        else {
                            votes[5] += 0.01612222;
                        }

                        // tree #128
                        if (x[4] <= 0.87676775) {
                            votes[6] += -0.0066122543;
                        }

                        else {
                            votes[6] += 0.029163934;
                        }

                        // tree #129
                        if (x[15] <= 0.73023427) {
                            votes[7] += -0.0054771127;
                        }

                        else {
                            votes[7] += 0.02349725;
                        }

                        // tree #130
                        if (x[3] <= -0.26463816) {
                            if (x[12] <= 0.5359291) {
                                votes[8] += -0.006093781;
                            }

                            else {
                                votes[8] += 0.027146006;
                            }
                        }

                        else {
                            votes[8] += -0.0065425085;
                        }

                        // tree #131
                        if (x[0] <= -0.5771108) {
                            if (x[0] <= -1.2286333) {
                                votes[9] += -0.0039025934;
                            }

                            else {
                                votes[9] += 0.028206075;
                            }
                        }

                        else {
                            votes[9] += -0.006565533;
                        }

                        // tree #132
                        if (x[9] <= -1.1716425) {
                            votes[10] += 0.029136078;
                        }

                        else {
                            votes[10] += -0.006617029;
                        }

                        // tree #133
                        if (x[7] <= -0.36735454) {
                            votes[0] += -0.006561979;
                        }

                        else {
                            if (x[15] <= 0.59606755) {
                                votes[0] += 0.029030973;
                            }

                            else {
                                votes[0] += -0.0037631372;
                            }
                        }

                        // tree #134
                        if (x[9] <= 1.2454867) {
                            if (x[9] <= 0.122797124) {
                                votes[1] += -0.00648187;
                            }

                            else {
                                votes[1] += 0.0022847343;
                            }
                        }

                        else {
                            votes[1] += 0.019909063;
                        }

                        // tree #135
                        if (x[14] <= 0.57913125) {
                            if (x[19] <= 0.557227) {
                                votes[2] += -0.006500968;
                            }

                            else {
                                votes[2] += -0.00024793705;
                            }
                        }

                        else {
                            votes[2] += 0.01598614;
                        }

                        // tree #136
                        if (x[0] <= 0.95050216) {
                            if (x[8] <= -1.3365498) {
                                votes[3] += 0.0025563608;
                            }

                            else {
                                votes[3] += -0.0065570944;
                            }
                        }

                        else {
                            votes[3] += 0.015803957;
                        }

                        // tree #137
                        if (x[15] <= -1.2316108) {
                            votes[4] += 0.021930221;
                        }

                        else {
                            votes[4] += -0.006594396;
                        }

                        // tree #138
                        if (x[7] <= 1.2661054) {
                            votes[5] += -0.0065752883;
                        }

                        else {
                            votes[5] += 0.020006416;
                        }

                        // tree #139
                        if (x[4] <= 0.8941002) {
                            votes[6] += -0.0066268994;
                        }

                        else {
                            votes[6] += 0.02978926;
                        }

                        // tree #140
                        if (x[8] <= 0.77264535) {
                            votes[7] += -0.006624351;
                        }

                        else {
                            votes[7] += 0.018499937;
                        }

                        // tree #141
                        if (x[1] <= -0.63085675) {
                            if (x[12] <= 0.6099825) {
                                votes[8] += -0.0039506033;
                            }

                            else {
                                votes[8] += 0.021594277;
                            }
                        }

                        else {
                            votes[8] += -0.0065245773;
                        }

                        // tree #142
                        if (x[0] <= -0.68611) {
                            votes[9] += 0.010913598;
                        }

                        else {
                            votes[9] += -0.0065771425;
                        }

                        // tree #143
                        if (x[17] <= -1.3619583) {
                            votes[10] += 0.024586065;
                        }

                        else {
                            votes[10] += -0.0066013043;
                        }

                        // tree #144
                        if (x[4] <= -0.314668) {
                            votes[0] += -0.0058545573;
                        }

                        else {
                            votes[0] += 0.010168737;
                        }

                        // tree #145
                        if (x[15] <= 0.6681137) {
                            votes[1] += -0.0054517114;
                        }

                        else {
                            votes[1] += 0.009210895;
                        }

                        // tree #146
                        if (x[14] <= 0.7382273) {
                            if (x[19] <= 0.557227) {
                                votes[2] += -0.0064709852;
                            }

                            else {
                                votes[2] += 0.001987831;
                            }
                        }

                        else {
                            votes[2] += 0.019227615;
                        }

                        // tree #147
                        if (x[15] <= 0.18039054) {
                            votes[3] += 0.00800559;
                        }

                        else {
                            votes[3] += -0.0051927716;
                        }

                        // tree #148
                        if (x[15] <= -1.2316108) {
                            votes[4] += 0.02137785;
                        }

                        else {
                            votes[4] += -0.006591754;
                        }

                        // tree #149
                        if (x[7] <= 1.3031483) {
                            votes[5] += -0.006577076;
                        }

                        else {
                            votes[5] += 0.019776804;
                        }

                        // tree #150
                        if (x[4] <= 0.89388955) {
                            votes[6] += -0.006615126;
                        }

                        else {
                            votes[6] += 0.02686409;
                        }

                        // tree #151
                        if (x[9] <= 0.35964388) {
                            votes[7] += -0.0065222876;
                        }

                        else {
                            if (x[7] <= -0.38786322) {
                                votes[7] += 0.02738697;
                            }

                            else {
                                votes[7] += -0.0062495186;
                            }
                        }

                        // tree #152
                        if (x[3] <= -0.26463816) {
                            if (x[12] <= 0.5881847) {
                                votes[8] += -0.0060490253;
                            }

                            else {
                                votes[8] += 0.02779047;
                            }
                        }

                        else {
                            votes[8] += -0.0065437686;
                        }

                        // tree #153
                        if (x[3] <= -0.57654333) {
                            votes[9] += 0.011412644;
                        }

                        else {
                            votes[9] += -0.0065675946;
                        }

                        // tree #154
                        if (x[13] <= -1.6147132) {
                            votes[10] += 0.02274449;
                        }

                        else {
                            votes[10] += -0.006593144;
                        }

                        // tree #155
                        if (x[7] <= -0.36735454) {
                            votes[0] += -0.0065397318;
                        }

                        else {
                            if (x[0] <= 0.071997344) {
                                votes[0] += -0.0041032434;
                            }

                            else {
                                votes[0] += 0.02524692;
                            }
                        }

                        // tree #156
                        if (x[17] <= 0.6137413) {
                            votes[1] += -0.0065499963;
                        }

                        else {
                            if (x[5] <= 0.19779404) {
                                votes[1] += 0.018730681;
                            }

                            else {
                                votes[1] += -0.0060873292;
                            }
                        }

                        // tree #157
                        if (x[14] <= 0.7372161) {
                            if (x[0] <= 0.5592837) {
                                votes[2] += -0.005227879;
                            }

                            else {
                                votes[2] += 0.0023675403;
                            }
                        }

                        else {
                            votes[2] += 0.019556565;
                        }

                        // tree #158
                        if (x[12] <= 0.021015162) {
                            if (x[12] <= -0.8955052) {
                                votes[3] += -0.0061349287;
                            }

                            else {
                                votes[3] += 0.021290805;
                            }
                        }

                        else {
                            votes[3] += -0.0065245847;
                        }

                        // tree #159
                        if (x[13] <= -1.5546333) {
                            votes[4] += 0.019366905;
                        }

                        else {
                            votes[4] += -0.0065848087;
                        }

                        // tree #160
                        if (x[7] <= 1.3031483) {
                            votes[5] += -0.0065893694;
                        }

                        else {
                            votes[5] += 0.019010194;
                        }

                        // tree #161
                        if (x[7] <= 1.6990929) {
                            votes[6] += -0.00659501;
                        }

                        else {
                            votes[6] += 0.02245754;
                        }

                        // tree #162
                        if (x[8] <= 0.77264535) {
                            votes[7] += -0.0066104876;
                        }

                        else {
                            votes[7] += 0.018097013;
                        }

                        // tree #163
                        if (x[3] <= -0.26463816) {
                            if (x[13] <= -0.13434273) {
                                votes[8] += -0.003819325;
                            }

                            else {
                                votes[8] += 0.01758624;
                            }
                        }

                        else {
                            votes[8] += -0.0065450864;
                        }

                        // tree #164
                        if (x[3] <= -0.574924) {
                            votes[9] += 0.012394966;
                        }

                        else {
                            votes[9] += -0.0065411977;
                        }

                        // tree #165
                        if (x[15] <= -1.7390141) {
                            votes[10] += 0.028538376;
                        }

                        else {
                            votes[10] += -0.0066159777;
                        }

                        // tree #166
                        if (x[4] <= -0.22197574) {
                            votes[0] += -0.0059526036;
                        }

                        else {
                            votes[0] += 0.01183723;
                        }

                        // tree #167
                        if (x[17] <= 0.60919404) {
                            votes[1] += -0.0058599496;
                        }

                        else {
                            if (x[5] <= 0.19779404) {
                                votes[1] += 0.022009142;
                            }

                            else {
                                votes[1] += -0.006009903;
                            }
                        }

                        // tree #168
                        if (x[16] <= 0.7103931) {
                            if (x[8] <= -0.9684707) {
                                votes[2] += 0.0042876746;
                            }

                            else {
                                votes[2] += -0.006542732;
                            }
                        }

                        else {
                            votes[2] += 0.011328577;
                        }

                        // tree #169
                        if (x[3] <= 0.30717307) {
                            votes[3] += -0.006515853;
                        }

                        else {
                            if (x[9] <= 0.06477285) {
                                votes[3] += 0.022126261;
                            }

                            else {
                                votes[3] += -0.0062379343;
                            }
                        }

                        // tree #170
                        if (x[12] <= -1.0551257) {
                            votes[4] += 0.019295039;
                        }

                        else {
                            votes[4] += -0.0065818285;
                        }

                        // tree #171
                        if (x[4] <= 0.038109586) {
                            votes[5] += -0.0065608127;
                        }

                        else {
                            votes[5] += 0.016987184;
                        }

                        // tree #172
                        if (x[7] <= 1.7568033) {
                            votes[6] += -0.006596056;
                        }

                        else {
                            votes[6] += 0.033387594;
                        }

                        // tree #173
                        if (x[8] <= 0.74583066) {
                            votes[7] += -0.0065941405;
                        }

                        else {
                            votes[7] += 0.01791296;
                        }

                        // tree #174
                        if (x[3] <= -0.26463816) {
                            if (x[12] <= 0.5556506) {
                                votes[8] += -0.0061140126;
                            }

                            else {
                                votes[8] += 0.028328646;
                            }
                        }

                        else {
                            votes[8] += -0.0065357415;
                        }

                        // tree #175
                        if (x[3] <= -0.7181467) {
                            votes[9] += 0.013620452;
                        }

                        else {
                            votes[9] += -0.0065696966;
                        }

                        // tree #176
                        if (x[15] <= -1.695718) {
                            votes[10] += 0.027139207;
                        }

                        else {
                            votes[10] += -0.0066109067;
                        }

                        // tree #177
                        if (x[4] <= -0.3124842) {
                            votes[0] += -0.0065244953;
                        }

                        else {
                            if (x[15] <= 0.5858853) {
                                votes[0] += 0.025401494;
                            }

                            else {
                                votes[0] += -0.0038448174;
                            }
                        }

                        // tree #178
                        if (x[9] <= 1.2454867) {
                            if (x[8] <= 0.894987) {
                                votes[1] += -0.0065303487;
                            }

                            else {
                                votes[1] += 0.0024385436;
                            }
                        }

                        else {
                            votes[1] += 0.015588126;
                        }

                        // tree #179
                        if (x[14] <= 0.6236242) {
                            if (x[0] <= 0.56953645) {
                                votes[2] += -0.0058388887;
                            }

                            else {
                                votes[2] += 0.0009915648;
                            }
                        }

                        else {
                            votes[2] += 0.015904369;
                        }

                        // tree #180
                        if (x[0] <= 0.926654) {
                            votes[3] += -0.0054993215;
                        }

                        else {
                            votes[3] += 0.013601755;
                        }

                        // tree #181
                        if (x[15] <= -1.2316108) {
                            votes[4] += 0.021010274;
                        }

                        else {
                            votes[4] += -0.0065647406;
                        }

                        // tree #182
                        if (x[4] <= 0.038109586) {
                            votes[5] += -0.0065590194;
                        }

                        else {
                            votes[5] += 0.017012024;
                        }

                        // tree #183
                        if (x[4] <= 0.963379) {
                            votes[6] += -0.006612357;
                        }

                        else {
                            votes[6] += 0.0286042;
                        }

                        // tree #184
                        if (x[15] <= 0.73023427) {
                            votes[7] += -0.0054974873;
                        }

                        else {
                            votes[7] += 0.017077507;
                        }

                        // tree #185
                        if (x[1] <= -0.63085675) {
                            if (x[13] <= 0.028739506) {
                                votes[8] += 0.0023400313;
                            }

                            else {
                                votes[8] += 0.019966783;
                            }
                        }

                        else {
                            votes[8] += -0.0065260464;
                        }

                        // tree #186
                        if (x[0] <= -0.5771108) {
                            if (x[15] <= 0.33988458) {
                                votes[9] += 0.027394742;
                            }

                            else {
                                votes[9] += -0.003958357;
                            }
                        }

                        else {
                            votes[9] += -0.0065413113;
                        }

                        // tree #187
                        if (x[1] <= -1.1380873) {
                            votes[10] += 0.026222216;
                        }

                        else {
                            votes[10] += -0.006626955;
                        }

                        // tree #188
                        if (x[7] <= -0.37450874) {
                            votes[0] += -0.006537073;
                        }

                        else {
                            if (x[15] <= 0.5511457) {
                                votes[0] += 0.027381932;
                            }

                            else {
                                votes[0] += -0.00083715725;
                            }
                        }

                        // tree #189
                        if (x[11] <= 0.7048836) {
                            votes[1] += -0.006510778;
                        }

                        else {
                            if (x[4] <= -0.314668) {
                                votes[1] += 0.02093923;
                            }

                            else {
                                votes[1] += -0.0061930204;
                            }
                        }

                        // tree #190
                        if (x[16] <= 0.7103931) {
                            if (x[8] <= -0.9684707) {
                                votes[2] += 0.004274858;
                            }

                            else {
                                votes[2] += -0.006528446;
                            }
                        }

                        else {
                            votes[2] += 0.009610316;
                        }

                        // tree #191
                        if (x[0] <= 1.202149) {
                            if (x[8] <= -1.3228793) {
                                votes[3] += 0.0025287813;
                            }

                            else {
                                votes[3] += -0.0065415385;
                            }
                        }

                        else {
                            votes[3] += 0.02318962;
                        }

                        // tree #192
                        if (x[15] <= -1.2227976) {
                            votes[4] += 0.021292197;
                        }

                        else {
                            votes[4] += -0.0065712202;
                        }

                        // tree #193
                        if (x[5] <= 0.8410337) {
                            votes[5] += -0.0065526604;
                        }

                        else {
                            votes[5] += 0.015667628;
                        }

                        // tree #194
                        if (x[4] <= 0.963379) {
                            votes[6] += -0.0065881805;
                        }

                        else {
                            votes[6] += 0.026674239;
                        }

                        // tree #195
                        if (x[8] <= 1.0014305) {
                            votes[7] += -0.006033636;
                        }

                        else {
                            votes[7] += 0.013866645;
                        }

                        // tree #196
                        if (x[12] <= 0.5628705) {
                            votes[8] += -0.0065152114;
                        }

                        else {
                            if (x[8] <= 0.30321908) {
                                votes[8] += 0.029730707;
                            }

                            else {
                                votes[8] += -0.00626484;
                            }
                        }

                        // tree #197
                        if (x[3] <= -0.57654333) {
                            votes[9] += 0.012774484;
                        }

                        else {
                            votes[9] += -0.00656036;
                        }

                        // tree #198
                        if (x[12] <= -1.5552561) {
                            votes[10] += 0.029303323;
                        }

                        else {
                            votes[10] += -0.006603048;
                        }

                        // tree #199
                        if (x[7] <= -0.36735454) {
                            votes[0] += -0.0065248315;
                        }

                        else {
                            if (x[15] <= 0.5511457) {
                                votes[0] += 0.024730148;
                            }

                            else {
                                votes[0] += -0.0021340745;
                            }
                        }

                        // tree #200
                        if (x[9] <= 1.2374351) {
                            if (x[11] <= 1.009716) {
                                votes[1] += -0.0065401173;
                            }

                            else {
                                votes[1] += 0.006676651;
                            }
                        }

                        else {
                            votes[1] += 0.015819227;
                        }

                        // tree #201
                        if (x[16] <= 0.7103931) {
                            votes[2] += -0.0053335386;
                        }

                        else {
                            votes[2] += 0.0110638775;
                        }

                        // tree #202
                        if (x[12] <= 0.021015162) {
                            if (x[12] <= -0.8863994) {
                                votes[3] += -0.006151502;
                            }

                            else {
                                votes[3] += 0.019438205;
                            }
                        }

                        else {
                            votes[3] += -0.006510895;
                        }

                        // tree #203
                        if (x[15] <= -1.2316108) {
                            votes[4] += 0.020113807;
                        }

                        else {
                            votes[4] += -0.0065767956;
                        }

                        // tree #204
                        if (x[4] <= 0.038109586) {
                            votes[5] += -0.00652169;
                        }

                        else {
                            votes[5] += 0.017179506;
                        }

                        // tree #205
                        if (x[4] <= 0.982288) {
                            votes[6] += -0.006591869;
                        }

                        else {
                            votes[6] += 0.026648281;
                        }

                        // tree #206
                        if (x[15] <= 0.73023427) {
                            votes[7] += -0.0055595734;
                        }

                        else {
                            votes[7] += 0.018832587;
                        }

                        // tree #207
                        if (x[3] <= -0.3797921) {
                            if (x[12] <= 0.5556506) {
                                votes[8] += -0.0060754963;
                            }

                            else {
                                votes[8] += 0.02612071;
                            }
                        }

                        else {
                            votes[8] += -0.0065316507;
                        }

                        // tree #208
                        if (x[15] <= 0.19467998) {
                            votes[9] += 0.009292748;
                        }

                        else {
                            votes[9] += -0.005860672;
                        }

                        // tree #209
                        if (x[17] <= -1.3653542) {
                            votes[10] += 0.024619007;
                        }

                        else {
                            votes[10] += -0.0065943245;
                        }

                        // return argmax of votes
                        uint8_t classIdx = 0;
                        float maxVotes = votes[0];

                        for (uint8_t i = 1; i < 11; i++) {
                            if (votes[i] > maxVotes) {
                                classIdx = i;
                                maxVotes = votes[i];
                            }
                        }

                        return classIdx;
                    }

                protected:
                };
            }
        }
    }

#endif // BSL_MODEL_H_20250717_212432
