/*
 * BSL Gesture Recognition Model - Arduino Optimized
 *
 * Model Type: XGBoost_Arduino
 * Timestamp:  20250717_222005
 * Generated with micromlgen for Arduino compatibility
 * File Size: Optimized for <1MB Arduino memory constraints
 */

#ifndef BSL_MODEL_H_20250717_222005
#define BSL_MODEL_H_20250717_222005

#include <math.h>

// Feature count for normalization
const int BSL_MODEL_FEATURES = 20;

// Normalization parameters (StandardScaler)
const float scaler_mean[BSL_MODEL_FEATURES] = { 236.43887165f, 92.39925808f, 68.31279621f, 340.28182297f, 152.37936569f, 61.17299113f, 61.57183206f, 226.23237110f, 328.61752741f, 107.43810835f, 125.86835176f, 440.40250850f, 316.69635454f, 128.98405917f, 63.49782182f, 428.19369046f, 101.83935373f, 73.44464279f, 0.65034229f, 187.40944995f };
const float scaler_scale[BSL_MODEL_FEATURES] = { 135.30685827f, 67.06061261f, 76.61275307f, 168.41752247f, 110.80163096f, 86.67551891f, 35.16740834f, 190.60674057f, 154.65881356f, 79.40660419f, 98.04583070f, 183.85659880f, 139.38753003f, 71.97550737f, 44.95091841f, 177.07511049f, 81.46413449f, 52.91555341f, 3.46432243f, 124.83287112f };

// Normalization function
void normalize_features(float* features, int length) {
    for (int i = 0; i < length; i++) {
        features[i] = (features[i] - scaler_mean[i]) / scaler_scale[i];
    }
}

// Generated XGBoost model code
#pragma once
#include <cstdarg>
namespace Eloquent {
    namespace ML {
        namespace Port {
            class XGBClassifier {
                public:
                    /**
                    * Predict class for features vector
                    */
                    int predict(float *x) {
                        float votes[11] = { 0.0f };
                        // tree #1
                        if (x[5] <= -0.348894) {
                            votes[0] += -0.11489845;
                        }

                        else {
                            if (x[0] <= 0.071997344) {
                                votes[0] += -0.058887027;
                            }

                            else {
                                votes[0] += 0.572889;
                            }
                        }

                        // tree #2
                        if (x[9] <= 1.2454867) {
                            if (x[8] <= 1.2530272) {
                                votes[1] += -0.1299008;
                            }

                            else {
                                votes[1] += 0.16341704;
                            }
                        }

                        else {
                            votes[1] += 0.5666167;
                        }

                        // tree #3
                        if (x[16] <= 0.13932002) {
                            votes[2] += -0.12870236;
                        }

                        else {
                            if (x[3] <= 0.023156706) {
                                votes[2] += -0.11773195;
                            }

                            else {
                                votes[2] += 0.33487174;
                            }
                        }

                        // tree #4
                        if (x[0] <= 1.2393339) {
                            if (x[8] <= -1.3515005) {
                                votes[3] += 0.122441515;
                            }

                            else {
                                votes[3] += -0.12921882;
                            }
                        }

                        else {
                            votes[3] += 0.60308635;
                        }

                        // tree #5
                        if (x[15] <= -1.2850893) {
                            votes[4] += 0.63100994;
                        }

                        else {
                            votes[4] += -0.13029817;
                        }

                        // tree #6
                        if (x[5] <= 1.1085007) {
                            votes[5] += -0.12941982;
                        }

                        else {
                            votes[5] += 0.5822172;
                        }

                        // tree #7
                        if (x[4] <= 0.8941002) {
                            votes[6] += -0.1303631;
                        }

                        else {
                            votes[6] += 0.75371003;
                        }

                        // tree #8
                        if (x[8] <= 0.77264535) {
                            votes[7] += -0.12982027;
                        }

                        else {
                            if (x[5] <= -0.34040588) {
                                votes[7] += 0.7011673;
                            }

                            else {
                                votes[7] += -0.1120474;
                            }
                        }

                        // tree #9
                        if (x[0] <= -1.2286333) {
                            votes[8] += 0.43889442;
                        }

                        else {
                            if (x[4] <= -0.5799141) {
                                votes[8] += 0.14871126;
                            }

                            else {
                                votes[8] += -0.12956075;
                            }
                        }

                        // tree #10
                        if (x[3] <= -0.57654333) {
                            if (x[0] <= -1.244513) {
                                votes[9] += -0.10877516;
                            }

                            else {
                                votes[9] += 0.6027077;
                            }
                        }

                        else {
                            votes[9] += -0.12969403;
                        }

                        // tree #11
                        if (x[9] <= -1.1700672) {
                            votes[10] += 0.75371003;
                        }

                        else {
                            votes[10] += -0.13042606;
                        }

                        // tree #12
                        if (x[4] <= -0.3124842) {
                            votes[0] += -0.1270524;
                        }

                        else {
                            if (x[15] <= 0.59606755) {
                                votes[0] += 0.42562747;
                            }

                            else {
                                votes[0] += -0.073174186;
                            }
                        }

                        // tree #13
                        if (x[15] <= 0.7713057) {
                            if (x[11] <= 0.8238003) {
                                votes[1] += -0.12697935;
                            }

                            else {
                                if (x[7] <= -0.28500187) {
                                    votes[1] += 0.38622308;
                                }

                                else {
                                    votes[1] += -0.11730954;
                                }
                            }
                        }

                        else {
                            votes[1] += 0.3371182;
                        }

                        // tree #14
                        if (x[14] <= 0.7372161) {
                            if (x[6] <= 0.40208507) {
                                votes[2] += -0.124635994;
                            }

                            else {
                                if (x[17] <= 0.045256123) {
                                    votes[2] += -0.11634896;
                                }

                                else {
                                    votes[2] += 0.19999404;
                                }
                            }
                        }

                        else {
                            votes[2] += 0.41186267;
                        }

                        // tree #15
                        if (x[0] <= 1.202149) {
                            if (x[11] <= -1.0869443) {
                                votes[3] += 0.008380351;
                            }

                            else {
                                votes[3] += -0.12703726;
                            }
                        }

                        else {
                            votes[3] += 0.20776221;
                        }

                        // tree #16
                        if (x[15] <= -1.2316108) {
                            if (x[1] <= -0.9554337) {
                                votes[4] += -0.11724577;
                            }

                            else {
                                votes[4] += 0.6979617;
                            }
                        }

                        else {
                            votes[4] += -0.1273849;
                        }

                        // tree #17
                        if (x[7] <= 1.3031483) {
                            votes[5] += -0.12788299;
                        }

                        else {
                            if (x[4] <= 1.4422569) {
                                votes[5] += 0.74804944;
                            }

                            else {
                                votes[5] += -0.124788396;
                            }
                        }

                        // tree #18
                        if (x[4] <= 1.9603791) {
                            votes[6] += -0.12894404;
                        }

                        else {
                            votes[6] += 0.5214908;
                        }

                        // tree #19
                        if (x[15] <= 0.73023427) {
                            votes[7] += -0.11627115;
                        }

                        else {
                            if (x[1] <= -0.07562583) {
                                votes[7] += 0.658616;
                            }

                            else {
                                votes[7] += -0.0;
                            }
                        }

                        // tree #20
                        if (x[12] <= 0.57186985) {
                            votes[8] += -0.12903142;
                        }

                        else {
                            if (x[8] <= 0.16732463) {
                                votes[8] += 0.88868004;
                            }

                            else {
                                votes[8] += -0.12009543;
                            }
                        }

                        // tree #21
                        if (x[3] <= -0.72507393) {
                            if (x[12] <= 0.5359291) {
                                votes[9] += 0.5123328;
                            }

                            else {
                                votes[9] += -0.110270225;
                            }
                        }

                        else {
                            votes[9] += -0.11512471;
                        }

                        // tree #22
                        if (x[13] <= -1.7566861) {
                            votes[10] += 0.6907857;
                        }

                        else {
                            votes[10] += -0.12057786;
                        }

                        // tree #23
                        if (x[7] <= -0.37888074) {
                            votes[0] += -0.12575884;
                        }

                        else {
                            if (x[15] <= 0.5984634) {
                                votes[0] += 0.35271478;
                            }

                            else {
                                votes[0] += -0.11391761;
                            }
                        }

                        // tree #24
                        if (x[9] <= 1.2454867) {
                            if (x[17] <= 0.8772848) {
                                votes[1] += -0.12670805;
                            }

                            else {
                                votes[1] += -0.0;
                            }
                        }

                        else {
                            if (x[7] <= -0.37792683) {
                                votes[1] += 0.3375023;
                            }

                            else {
                                votes[1] += -0.04520688;
                            }
                        }

                        // tree #25
                        if (x[14] <= 1.2384362) {
                            if (x[9] <= 0.09709513) {
                                if (x[12] <= 0.13817707) {
                                    votes[2] += -0.11938525;
                                }

                                else {
                                    votes[2] += 0.20857021;
                                }
                            }

                            else {
                                votes[2] += -0.12599118;
                            }
                        }

                        else {
                            votes[2] += 0.36458284;
                        }

                        // tree #26
                        if (x[4] <= -0.41934) {
                            if (x[3] <= 0.29295877) {
                                votes[3] += -0.11764996;
                            }

                            else {
                                votes[3] += 0.30772728;
                            }
                        }

                        else {
                            votes[3] += -0.127238;
                        }

                        // tree #27
                        if (x[12] <= -1.0545387) {
                            if (x[3] <= 0.17456612) {
                                votes[4] += -0.04596524;
                            }

                            else {
                                votes[4] += 0.3870632;
                            }
                        }

                        else {
                            votes[4] += -0.1257448;
                        }

                        // tree #28
                        if (x[7] <= 1.3031483) {
                            votes[5] += -0.12598078;
                        }

                        else {
                            if (x[4] <= 1.4219024) {
                                votes[5] += 0.40946135;
                            }

                            else {
                                votes[5] += -0.11792045;
                            }
                        }

                        // tree #29
                        if (x[7] <= 1.8489332) {
                            votes[6] += -0.10214356;
                        }

                        else {
                            votes[6] += 0.33264184;
                        }

                        // tree #30
                        if (x[12] <= 0.8949771) {
                            votes[7] += -0.11167946;
                        }

                        else {
                            if (x[9] <= 0.3150413) {
                                votes[7] += -0.03969812;
                            }

                            else {
                                votes[7] += 0.33458707;
                            }
                        }

                        // tree #31
                        if (x[3] <= -0.26463816) {
                            if (x[12] <= 0.5556506) {
                                votes[8] += -0.111432485;
                            }

                            else {
                                votes[8] += 0.33869305;
                            }
                        }

                        else {
                            votes[8] += -0.12691551;
                        }

                        // tree #32
                        if (x[0] <= -0.5771108) {
                            if (x[4] <= -0.39205447) {
                                if (x[19] <= 0.2704193) {
                                    votes[9] += 0.057256598;
                                }

                                else {
                                    votes[9] += 0.39885017;
                                }
                            }

                            else {
                                votes[9] += -0.10990785;
                            }
                        }

                        else {
                            votes[9] += -0.12500122;
                        }

                        // tree #33
                        if (x[1] <= -1.2675421) {
                            votes[10] += 0.39560452;
                        }

                        else {
                            votes[10] += -0.12748541;
                        }

                        // tree #34
                        if (x[5] <= -0.32501292) {
                            votes[0] += -0.10481877;
                        }

                        else {
                            if (x[15] <= 0.59606755) {
                                if (x[11] <= 0.9977666) {
                                    votes[0] += 0.34756005;
                                }

                                else {
                                    votes[0] += 0.04470911;
                                }
                            }

                            else {
                                votes[0] += -0.11247015;
                            }
                        }

                        // tree #35
                        if (x[15] <= 0.7713057) {
                            if (x[10] <= -0.71446353) {
                                if (x[4] <= -0.3465459) {
                                    votes[1] += 0.13203423;
                                }

                                else {
                                    votes[1] += -0.10479582;
                                }
                            }

                            else {
                                votes[1] += -0.12402981;
                            }
                        }

                        else {
                            votes[1] += 0.2428384;
                        }

                        // tree #36
                        if (x[18] <= -0.18335208) {
                            votes[2] += -0.09337913;
                        }

                        else {
                            if (x[2] <= -0.35096708) {
                                votes[2] += -0.045697797;
                            }

                            else {
                                votes[2] += 0.37082487;
                            }
                        }

                        // tree #37
                        if (x[12] <= 0.021015162) {
                            if (x[12] <= -0.9078678) {
                                votes[3] += -0.119691364;
                            }

                            else {
                                if (x[17] <= -0.031853974) {
                                    votes[3] += 0.5004849;
                                }

                                else {
                                    votes[3] += 0.138106;
                                }
                            }
                        }

                        else {
                            votes[3] += -0.12615474;
                        }

                        // tree #38
                        if (x[15] <= -1.2227976) {
                            if (x[1] <= 0.6600071) {
                                votes[4] += -0.04921758;
                            }

                            else {
                                votes[4] += 0.28823662;
                            }
                        }

                        else {
                            votes[4] += -0.12344971;
                        }

                        // tree #39
                        if (x[7] <= 1.3031483) {
                            votes[5] += -0.124226354;
                        }

                        else {
                            if (x[8] <= 0.461455) {
                                votes[5] += 0.2896189;
                            }

                            else {
                                votes[5] += -0.11297093;
                            }
                        }

                        // tree #40
                        if (x[4] <= 1.9603791) {
                            votes[6] += -0.12552811;
                        }

                        else {
                            votes[6] += 0.28297892;
                        }

                        // tree #41
                        if (x[15] <= 0.74375355) {
                            votes[7] += -0.1270316;
                        }

                        else {
                            if (x[16] <= -0.39324003) {
                                votes[7] += 0.3475232;
                            }

                            else {
                                votes[7] += 0.035907224;
                            }
                        }

                        // tree #42
                        if (x[12] <= 0.66779923) {
                            votes[8] += -0.12432462;
                        }

                        else {
                            if (x[8] <= 0.19072708) {
                                votes[8] += 0.28611183;
                            }

                            else {
                                votes[8] += -0.11468659;
                            }
                        }

                        // tree #43
                        if (x[0] <= -0.5771108) {
                            if (x[9] <= -0.5412792) {
                                if (x[17] <= 0.15284629) {
                                    votes[9] += -0.0;
                                }

                                else {
                                    votes[9] += 0.31582808;
                                }
                            }

                            else {
                                votes[9] += -0.10835284;
                            }
                        }

                        else {
                            votes[9] += -0.12339639;
                        }

                        // tree #44
                        if (x[15] <= -1.8890104) {
                            votes[10] += 0.31359535;
                        }

                        else {
                            votes[10] += -0.12575336;
                        }

                        // tree #45
                        if (x[7] <= -0.36735454) {
                            votes[0] += -0.12160255;
                        }

                        else {
                            if (x[15] <= 0.5022023) {
                                votes[0] += 0.29570454;
                            }

                            else {
                                votes[0] += -0.01752243;
                            }
                        }

                        // tree #46
                        if (x[17] <= 0.60700464) {
                            votes[1] += -0.10575812;
                        }

                        else {
                            if (x[5] <= 0.51949644) {
                                if (x[8] <= 0.8424686) {
                                    votes[1] += 0.16801755;
                                }

                                else {
                                    votes[1] += 0.4928331;
                                }
                            }

                            else {
                                votes[1] += -0.111071125;
                            }
                        }

                        // tree #47
                        if (x[6] <= 0.34564507) {
                            votes[2] += -0.124640115;
                        }

                        else {
                            if (x[1] <= -0.4592062) {
                                votes[2] += -0.11314131;
                            }

                            else {
                                if (x[11] <= 0.08796665) {
                                    votes[2] += 0.3007567;
                                }

                                else {
                                    votes[2] += 0.04738757;
                                }
                            }
                        }

                        // tree #48
                        if (x[12] <= -0.10180135) {
                            if (x[12] <= -0.8289761) {
                                votes[3] += -0.11254674;
                            }

                            else {
                                votes[3] += 0.23556775;
                            }
                        }

                        else {
                            votes[3] += -0.122966014;
                        }

                        // tree #49
                        if (x[15] <= -1.1542597) {
                            if (x[0] <= 0.1650675) {
                                votes[4] += -0.05276865;
                            }

                            else {
                                votes[4] += 0.23915046;
                            }
                        }

                        else {
                            votes[4] += -0.12158592;
                        }

                        // tree #50
                        if (x[7] <= 1.2661054) {
                            votes[5] += -0.121893615;
                        }

                        else {
                            if (x[8] <= 0.44136775) {
                                votes[5] += 0.24770442;
                            }

                            else {
                                votes[5] += -0.04144016;
                            }
                        }

                        // tree #51
                        if (x[4] <= 1.9603791) {
                            votes[6] += -0.1239446;
                        }

                        else {
                            if (x[13] <= 0.76371264) {
                                votes[6] += 0.26711753;
                            }

                            else {
                                votes[6] += 0.0024618537;
                            }
                        }

                        // tree #52
                        if (x[8] <= 1.2655456) {
                            votes[7] += -0.09208509;
                        }

                        else {
                            if (x[1] <= -1.0398848) {
                                votes[7] += 0.290995;
                            }

                            else {
                                votes[7] += 0.016635368;
                            }
                        }

                        // tree #53
                        if (x[1] <= -0.7936132) {
                            if (x[12] <= 0.6852033) {
                                votes[8] += -0.033591136;
                            }

                            else {
                                if (x[9] <= -0.69760835) {
                                    votes[8] += 0.24909183;
                                }

                                else {
                                    votes[8] += 0.010492667;
                                }
                            }
                        }

                        else {
                            votes[8] += -0.124921404;
                        }

                        // tree #54
                        if (x[0] <= -0.5771108) {
                            if (x[0] <= -1.244513) {
                                votes[9] += -0.11063966;
                            }

                            else {
                                if (x[15] <= 0.07548726) {
                                    votes[9] += 0.25229555;
                                }

                                else {
                                    votes[9] += 0.021899672;
                                }
                            }
                        }

                        else {
                            votes[9] += -0.12066135;
                        }

                        // tree #55
                        if (x[1] <= -1.1506033) {
                            votes[10] += 0.23513237;
                        }

                        else {
                            votes[10] += -0.12307902;
                        }

                        // tree #56
                        if (x[7] <= -0.3577361) {
                            votes[0] += -0.118070945;
                        }

                        else {
                            if (x[0] <= 0.06525174) {
                                votes[0] += -0.05974265;
                            }

                            else {
                                if (x[6] <= -0.17308593) {
                                    votes[0] += 0.0036653185;
                                }

                                else {
                                    votes[0] += 0.25655308;
                                }
                            }
                        }

                        // tree #57
                        if (x[15] <= 0.7925259) {
                            votes[1] += -0.066311315;
                        }

                        else {
                            votes[1] += 0.18685232;
                        }

                        // tree #58
                        if (x[12] <= 1.0752821) {
                            if (x[12] <= 0.3385091) {
                                votes[2] += -0.12309123;
                            }

                            else {
                                if (x[11] <= 0.6391208) {
                                    votes[2] += 0.14195232;
                                }

                                else {
                                    votes[2] += -0.11607381;
                                }
                            }
                        }

                        else {
                            votes[2] += 0.24351616;
                        }

                        // tree #59
                        if (x[15] <= 0.45839274) {
                            if (x[15] <= -1.154773) {
                                votes[3] += -0.03779168;
                            }

                            else {
                                if (x[1] <= -0.03484465) {
                                    votes[3] += 0.022391096;
                                }

                                else {
                                    votes[3] += 0.24044198;
                                }
                            }
                        }

                        else {
                            votes[3] += -0.098336704;
                        }

                        // tree #60
                        if (x[12] <= -1.1378152) {
                            if (x[0] <= 0.05315465) {
                                votes[4] += -0.04226174;
                            }

                            else {
                                votes[4] += 0.19737038;
                            }
                        }

                        else {
                            votes[4] += -0.12006301;
                        }

                        // tree #61
                        if (x[7] <= 1.5550551) {
                            votes[5] += -0.120549306;
                        }

                        else {
                            votes[5] += 0.08774144;
                        }

                        // tree #62
                        if (x[4] <= 1.9213263) {
                            votes[6] += -0.121074416;
                        }

                        else {
                            if (x[9] <= 0.8225275) {
                                votes[6] += -0.0;
                            }

                            else {
                                votes[6] += 0.24440482;
                            }
                        }

                        // tree #63
                        if (x[15] <= 0.6717075) {
                            votes[7] += -0.12236846;
                        }

                        else {
                            if (x[17] <= 0.55685157) {
                                votes[7] += 0.25446326;
                            }

                            else {
                                votes[7] += -0.0;
                            }
                        }

                        // tree #64
                        if (x[1] <= -0.7936132) {
                            if (x[12] <= 0.8030913) {
                                votes[8] += -0.0;
                            }

                            else {
                                votes[8] += 0.16094072;
                            }
                        }

                        else {
                            votes[8] += -0.12077845;
                        }

                        // tree #65
                        if (x[3] <= -0.5482047) {
                            if (x[2] <= -0.34127647) {
                                votes[9] += -0.0;
                            }

                            else {
                                votes[9] += 0.20183319;
                            }
                        }

                        else {
                            votes[9] += -0.11893546;
                        }

                        // tree #66
                        if (x[15] <= -1.8815662) {
                            votes[10] += 0.2193369;
                        }

                        else {
                            votes[10] += -0.122297;
                        }

                        // tree #67
                        if (x[4] <= -0.3124842) {
                            votes[0] += -0.1203242;
                        }

                        else {
                            if (x[15] <= 0.49450138) {
                                votes[0] += 0.19765034;
                            }

                            else {
                                votes[0] += -0.0016500629;
                            }
                        }

                        // tree #68
                        if (x[2] <= -0.0058627287) {
                            votes[1] += -0.0973881;
                        }

                        else {
                            if (x[11] <= 0.860967) {
                                votes[1] += -0.0;
                            }

                            else {
                                votes[1] += 0.2370514;
                            }
                        }

                        // tree #69
                        if (x[14] <= 0.24981582) {
                            votes[2] += -0.10621027;
                        }

                        else {
                            if (x[15] <= 0.5425036) {
                                votes[2] += -0.05877277;
                            }

                            else {
                                votes[2] += 0.18031098;
                            }
                        }

                        // tree #70
                        if (x[0] <= 1.202149) {
                            votes[3] += -0.08799807;
                        }

                        else {
                            votes[3] += 0.16334143;
                        }

                        // tree #71
                        if (x[13] <= -1.528353) {
                            votes[4] += 0.14061554;
                        }

                        else {
                            votes[4] += -0.11834605;
                        }

                        // tree #72
                        if (x[7] <= 1.5516369) {
                            votes[5] += -0.118605584;
                        }

                        else {
                            if (x[4] <= 0.963379) {
                                votes[5] += 0.1993379;
                            }

                            else {
                                votes[5] += -0.0055903313;
                            }
                        }

                        // tree #73
                        if (x[7] <= 1.8489332) {
                            votes[6] += -0.108451836;
                        }

                        else {
                            votes[6] += 0.13482073;
                        }

                        // tree #74
                        if (x[15] <= 0.73023427) {
                            votes[7] += -0.081144035;
                        }

                        else {
                            if (x[1] <= -0.07562583) {
                                votes[7] += 0.2531184;
                            }

                            else {
                                votes[7] += 0.007395882;
                            }
                        }

                        // tree #75
                        if (x[3] <= -0.4329608) {
                            if (x[13] <= 0.054582793) {
                                votes[8] += -0.014170489;
                            }

                            else {
                                votes[8] += 0.14077386;
                            }
                        }

                        else {
                            votes[8] += -0.120533735;
                        }

                        // tree #76
                        if (x[0] <= -0.5738243) {
                            if (x[0] <= -1.2395837) {
                                votes[9] += -0.056932103;
                            }

                            else {
                                if (x[6] <= 0.47705117) {
                                    votes[9] += -0.0;
                                }

                                else {
                                    votes[9] += 0.21390484;
                                }
                            }
                        }

                        else {
                            votes[9] += -0.11699655;
                        }

                        // tree #77
                        if (x[12] <= -1.6692996) {
                            votes[10] += 0.19332284;
                        }

                        else {
                            votes[10] += -0.12021562;
                        }

                        // tree #78
                        if (x[4] <= -0.22959378) {
                            votes[0] += -0.11866669;
                        }

                        else {
                            if (x[2] <= 0.34517464) {
                                votes[0] += -0.02742018;
                            }

                            else {
                                votes[0] += 0.1799567;
                            }
                        }

                        // tree #79
                        if (x[1] <= 0.059916504) {
                            votes[1] += -0.10481917;
                        }

                        else {
                            if (x[12] <= 0.2777737) {
                                votes[1] += -0.10635274;
                            }

                            else {
                                if (x[1] <= 0.45357227) {
                                    votes[1] += 0.22639313;
                                }

                                else {
                                    votes[1] += 0.02471753;
                                }
                            }
                        }

                        // tree #80
                        if (x[14] <= 1.3297815) {
                            if (x[19] <= 0.557227) {
                                votes[2] += -0.11643983;
                            }

                            else {
                                if (x[11] <= 0.64455986) {
                                    votes[2] += 0.17687264;
                                }

                                else {
                                    votes[2] += -0.10826343;
                                }
                            }
                        }

                        else {
                            votes[2] += 0.22274879;
                        }

                        // tree #81
                        if (x[0] <= 1.202149) {
                            votes[3] += -0.08183388;
                        }

                        else {
                            if (x[7] <= -0.5902472) {
                                votes[3] += 0.20731156;
                            }

                            else {
                                votes[3] += 0.0009811382;
                            }
                        }

                        // tree #82
                        if (x[15] <= -1.2227976) {
                            if (x[3] <= 0.19471806) {
                                votes[4] += -0.0024991378;
                            }

                            else {
                                votes[4] += 0.17577095;
                            }
                        }

                        else {
                            votes[4] += -0.116734646;
                        }

                        // tree #83
                        if (x[19] <= 0.85423017) {
                            votes[5] += -0.11635708;
                        }

                        else {
                            if (x[16] <= 0.089420766) {
                                votes[5] += 0.18231602;
                            }

                            else {
                                votes[5] += -0.0;
                            }
                        }

                        // tree #84
                        if (x[7] <= 1.8342274) {
                            votes[6] += -0.12355054;
                        }

                        else {
                            votes[6] += 0.1283853;
                        }

                        // tree #85
                        if (x[15] <= 0.67145073) {
                            votes[7] += -0.09516662;
                        }

                        else {
                            votes[7] += 0.16548106;
                        }

                        // tree #86
                        if (x[9] <= -0.22466114) {
                            if (x[12] <= 0.5553245) {
                                votes[8] += -0.10526473;
                            }

                            else {
                                votes[8] += 0.16865128;
                            }
                        }

                        else {
                            votes[8] += -0.11827958;
                        }

                        // tree #87
                        if (x[3] <= -0.57654333) {
                            if (x[4] <= -0.42815363) {
                                votes[9] += 0.16480301;
                            }

                            else {
                                votes[9] += -0.0;
                            }
                        }

                        else {
                            votes[9] += -0.11536566;
                        }

                        // tree #88
                        if (x[12] <= -1.6335914) {
                            votes[10] += 0.16832264;
                        }

                        else {
                            votes[10] += -0.118320026;
                        }

                        // tree #89
                        if (x[7] <= -0.36719555) {
                            votes[0] += -0.1109899;
                        }

                        else {
                            if (x[6] <= 0.10997575) {
                                if (x[8] <= -0.34702554) {
                                    votes[0] += 0.121721864;
                                }

                                else {
                                    votes[0] += -0.11039407;
                                }
                            }

                            else {
                                votes[0] += 0.18784466;
                            }
                        }

                        // tree #90
                        if (x[1] <= -0.41929168) {
                            votes[1] += -0.12444924;
                        }

                        else {
                            if (x[11] <= 1.0399601) {
                                if (x[3] <= 0.15270488) {
                                    votes[1] += 0.10323752;
                                }

                                else {
                                    votes[1] += -0.11107457;
                                }
                            }

                            else {
                                votes[1] += 0.20171617;
                            }
                        }

                        // tree #91
                        if (x[12] <= 0.13817707) {
                            votes[2] += -0.11674938;
                        }

                        else {
                            if (x[11] <= 0.35414907) {
                                votes[2] += 0.17596832;
                            }

                            else {
                                votes[2] += -0.11329314;
                            }
                        }

                        // tree #92
                        if (x[12] <= 0.025204485) {
                            if (x[0] <= 0.0530158) {
                                votes[3] += -0.10359827;
                            }

                            else {
                                votes[3] += 0.14062335;
                            }
                        }

                        else {
                            votes[3] += -0.11551902;
                        }

                        // tree #93
                        if (x[16] <= -1.1456887) {
                            if (x[1] <= 0.745666) {
                                votes[4] += -0.0;
                            }

                            else {
                                votes[4] += 0.16651365;
                            }
                        }

                        else {
                            votes[4] += -0.11389305;
                        }

                        // tree #94
                        if (x[4] <= 0.038109586) {
                            votes[5] += -0.11472269;
                        }

                        else {
                            if (x[4] <= 0.9820775) {
                                votes[5] += 0.15724391;
                            }

                            else {
                                votes[5] += -0.054114494;
                            }
                        }

                        // tree #95
                        if (x[7] <= 1.7360561) {
                            votes[6] += -0.11575848;
                        }

                        else {
                            votes[6] += 0.13710463;
                        }

                        // tree #96
                        if (x[1] <= -0.08225313) {
                            if (x[11] <= 0.8840416) {
                                votes[7] += -0.036480114;
                            }

                            else {
                                votes[7] += 0.23640744;
                            }
                        }

                        else {
                            votes[7] += -0.10235167;
                        }

                        // tree #97
                        if (x[3] <= -0.26463816) {
                            if (x[12] <= 0.8328395) {
                                votes[8] += -0.024013923;
                            }

                            else {
                                votes[8] += 0.13000457;
                            }
                        }

                        else {
                            votes[8] += -0.117482506;
                        }

                        // tree #98
                        if (x[0] <= -0.5771108) {
                            if (x[2] <= -0.34127647) {
                                votes[9] += -0.0;
                            }

                            else {
                                votes[9] += 0.16696553;
                            }
                        }

                        else {
                            votes[9] += -0.11393395;
                        }

                        // tree #99
                        if (x[13] <= -1.6959009) {
                            votes[10] += 0.16439696;
                        }

                        else {
                            votes[10] += -0.11598607;
                        }

                        // tree #100
                        if (x[5] <= -0.348894) {
                            votes[0] += -0.10971462;
                        }

                        else {
                            if (x[9] <= 0.5481845) {
                                votes[0] += 0.15051173;
                            }

                            else {
                                votes[0] += -0.013174059;
                            }
                        }

                        // tree #101
                        if (x[1] <= -0.058715697) {
                            votes[1] += -0.11759793;
                        }

                        else {
                            if (x[8] <= 1.1143789) {
                                if (x[9] <= 1.4312167) {
                                    votes[1] += -0.08838629;
                                }

                                else {
                                    votes[1] += 0.10024103;
                                }
                            }

                            else {
                                votes[1] += 0.19977538;
                            }
                        }

                        // tree #102
                        if (x[6] <= 0.3808303) {
                            votes[2] += -0.1154385;
                        }

                        else {
                            if (x[19] <= 0.63284326) {
                                votes[2] += -0.063776545;
                            }

                            else {
                                votes[2] += 0.11978354;
                            }
                        }

                        // tree #103
                        if (x[12] <= -0.057668887) {
                            if (x[16] <= -0.81187195) {
                                votes[3] += -0.05994541;
                            }

                            else {
                                votes[3] += 0.121572174;
                            }
                        }

                        else {
                            votes[3] += -0.11255214;
                        }

                        // tree #104
                        if (x[15] <= -1.2939025) {
                            votes[4] += 0.083733276;
                        }

                        else {
                            votes[4] += -0.11157142;
                        }

                        // tree #105
                        if (x[1] <= 0.59565496) {
                            votes[5] += -0.11283592;
                        }

                        else {
                            votes[5] += 0.09358867;
                        }

                        // tree #106
                        if (x[4] <= 1.5004103) {
                            votes[6] += -0.11246689;
                        }

                        else {
                            if (x[9] <= 0.63711214) {
                                votes[6] += -0.0;
                            }

                            else {
                                votes[6] += 0.19400874;
                            }
                        }

                        // tree #107
                        if (x[1] <= -0.9226998) {
                            votes[7] += 0.11410055;
                        }

                        else {
                            votes[7] += -0.11060341;
                        }

                        // tree #108
                        if (x[1] <= -0.7936132) {
                            votes[8] += 0.04174762;
                        }

                        else {
                            votes[8] += -0.112800755;
                        }

                        // tree #109
                        if (x[15] <= 0.20888382) {
                            if (x[19] <= 0.22878787) {
                                votes[9] += -0.040638506;
                            }

                            else {
                                votes[9] += 0.14530541;
                            }
                        }

                        else {
                            votes[9] += -0.09092598;
                        }

                        // tree #110
                        if (x[17] <= -1.3673292) {
                            votes[10] += 0.14234172;
                        }

                        else {
                            votes[10] += -0.11545317;
                        }

                        // tree #111
                        if (x[9] <= 0.06481754) {
                            votes[0] += -0.11518965;
                        }

                        else {
                            if (x[15] <= 0.5511457) {
                                votes[0] += 0.12262833;
                            }

                            else {
                                votes[0] += -0.06747301;
                            }
                        }

                        // tree #112
                        if (x[17] <= 0.61155194) {
                            votes[1] += -0.083529234;
                        }

                        else {
                            if (x[4] <= -0.314668) {
                                votes[1] += 0.16202386;
                            }

                            else {
                                votes[1] += -0.017651364;
                            }
                        }

                        // tree #113
                        if (x[11] <= 0.26588857) {
                            if (x[15] <= 0.57185256) {
                                votes[2] += -0.07389132;
                            }

                            else {
                                votes[2] += 0.1449643;
                            }
                        }

                        else {
                            votes[2] += -0.11149522;
                        }

                        // tree #114
                        if (x[3] <= 0.34405833) {
                            votes[3] += -0.111227445;
                        }

                        else {
                            votes[3] += 0.044881307;
                        }

                        // tree #115
                        if (x[15] <= -1.2316108) {
                            votes[4] += 0.096058875;
                        }

                        else {
                            votes[4] += -0.1107179;
                        }

                        // tree #116
                        if (x[1] <= 0.62867117) {
                            votes[5] += -0.11053122;
                        }

                        else {
                            votes[5] += 0.098427884;
                        }

                        // tree #117
                        if (x[7] <= 1.8489332) {
                            votes[6] += -0.09522614;
                        }

                        else {
                            votes[6] += 0.1362318;
                        }

                        // tree #118
                        if (x[11] <= 0.81094444) {
                            votes[7] += -0.11188416;
                        }

                        else {
                            if (x[5] <= -0.50760996) {
                                votes[7] += 0.16376393;
                            }

                            else {
                                votes[7] += -0.08396004;
                            }
                        }

                        // tree #119
                        if (x[12] <= 0.83165354) {
                            votes[8] += -0.111240305;
                        }

                        else {
                            votes[8] += 0.06723643;
                        }

                        // tree #120
                        if (x[15] <= 0.19467998) {
                            if (x[16] <= 0.56163085) {
                                votes[9] += -0.05561511;
                            }

                            else {
                                votes[9] += 0.1320756;
                            }
                        }

                        else {
                            votes[9] += -0.111493744;
                        }

                        // tree #121
                        if (x[17] <= -1.3648555) {
                            votes[10] += 0.14267386;
                        }

                        else {
                            votes[10] += -0.11210626;
                        }

                        // tree #122
                        if (x[5] <= -0.42823756) {
                            votes[0] += -0.10667403;
                        }

                        else {
                            if (x[6] <= 0.27053532) {
                                votes[0] += -0.024951333;
                            }

                            else {
                                votes[0] += 0.13692316;
                            }
                        }

                        // tree #123
                        if (x[11] <= 1.057431) {
                            votes[1] += -0.083325155;
                        }

                        else {
                            votes[1] += 0.054779325;
                        }

                        // tree #124
                        if (x[19] <= 0.6896465) {
                            votes[2] += -0.09631046;
                        }

                        else {
                            if (x[11] <= 0.19114324) {
                                votes[2] += 0.12472662;
                            }

                            else {
                                votes[2] += -0.037964083;
                            }
                        }

                        // tree #125
                        if (x[12] <= 0.025204485) {
                            if (x[0] <= 0.33114454) {
                                votes[3] += -0.04799096;
                            }

                            else {
                                votes[3] += 0.09928377;
                            }
                        }

                        else {
                            votes[3] += -0.11114847;
                        }

                        // tree #126
                        if (x[1] <= 0.6832828) {
                            votes[4] += -0.088293545;
                        }

                        else {
                            votes[4] += 0.08332369;
                        }

                        // tree #127
                        if (x[7] <= 1.5259614) {
                            votes[5] += -0.11124516;
                        }

                        else {
                            votes[5] += 0.06468583;
                        }

                        // tree #128
                        if (x[4] <= 1.9603791) {
                            votes[6] += -0.11268074;
                        }

                        else {
                            votes[6] += 0.09765937;
                        }

                        // tree #129
                        if (x[8] <= 0.77264535) {
                            votes[7] += -0.10907325;
                        }

                        else {
                            if (x[17] <= 0.55685157) {
                                votes[7] += 0.1581899;
                            }

                            else {
                                votes[7] += -0.014103799;
                            }
                        }

                        // tree #130
                        if (x[3] <= -0.26463816) {
                            votes[8] += 0.05149347;
                        }

                        else {
                            votes[8] += -0.10737517;
                        }

                        // tree #131
                        if (x[0] <= -0.5771108) {
                            votes[9] += 0.04832921;
                        }

                        else {
                            votes[9] += -0.105634555;
                        }

                        // tree #132
                        if (x[9] <= -1.2345634) {
                            votes[10] += 0.14260292;
                        }

                        else {
                            votes[10] += -0.11141345;
                        }

                        // tree #133
                        if (x[7] <= -0.36735454) {
                            votes[0] += -0.10513203;
                        }

                        else {
                            votes[0] += 0.05542428;
                        }

                        // tree #134
                        if (x[16] <= -0.20508698) {
                            votes[1] += -0.11199658;
                        }

                        else {
                            votes[1] += 0.05489601;
                        }

                        // tree #135
                        if (x[14] <= 1.2081001) {
                            votes[2] += -0.04525047;
                        }

                        else {
                            votes[2] += 0.11692352;
                        }

                        // tree #136
                        if (x[12] <= 0.021015162) {
                            votes[3] += 0.06707209;
                        }

                        else {
                            votes[3] += -0.10908569;
                        }

                        // tree #137
                        if (x[15] <= -1.2316108) {
                            votes[4] += 0.07094493;
                        }

                        else {
                            votes[4] += -0.10649647;
                        }

                        // tree #138
                        if (x[7] <= 1.2661054) {
                            votes[5] += -0.107046925;
                        }

                        else {
                            votes[5] += 0.072714135;
                        }

                        // tree #139
                        if (x[4] <= 1.9603791) {
                            votes[6] += -0.11204707;
                        }

                        else {
                            votes[6] += 0.09620213;
                        }

                        // tree #140
                        if (x[8] <= 0.77264535) {
                            votes[7] += -0.111031905;
                        }

                        else {
                            votes[7] += 0.07841138;
                        }

                        // tree #141
                        if (x[9] <= -0.27549094) {
                            if (x[13] <= 0.08936332) {
                                votes[8] += -0.0460054;
                            }

                            else {
                                votes[8] += 0.13404551;
                            }
                        }

                        else {
                            votes[8] += -0.11092558;
                        }

                        // tree #142
                        if (x[15] <= 0.19159961) {
                            votes[9] += 0.028243275;
                        }

                        else {
                            votes[9] += -0.11046923;
                        }

                        // tree #143
                        if (x[12] <= -1.6692996) {
                            votes[10] += 0.11647813;
                        }

                        else {
                            votes[10] += -0.1079468;
                        }

                        // tree #144
                        if (x[13] <= 0.40739623) {
                            votes[0] += -0.08308236;
                        }

                        else {
                            votes[0] += 0.07507806;
                        }

                        // tree #145
                        votes[1] += -0.010049908;
                        // tree #146
                        if (x[3] <= 0.035931595) {
                            votes[2] += -0.1065853;
                        }

                        else {
                            if (x[12] <= 0.323116) {
                                votes[2] += -0.05582238;
                            }

                            else {
                                votes[2] += 0.1324766;
                            }
                        }

                        // tree #147
                        votes[3] += -0.014079654;
                        // tree #148
                        if (x[15] <= -1.2316108) {
                            votes[4] += 0.068904735;
                        }

                        else {
                            votes[4] += -0.101785436;
                        }

                        // tree #149
                        if (x[12] <= 0.13544434) {
                            votes[5] += 0.08529029;
                        }

                        else {
                            votes[5] += -0.10598832;
                        }

                        // tree #150
                        if (x[7] <= 1.7360561) {
                            votes[6] += -0.1056185;
                        }

                        else {
                            votes[6] += 0.10991959;
                        }

                        // tree #151
                        if (x[9] <= 0.41346264) {
                            votes[7] += -0.10484898;
                        }

                        else {
                            if (x[17] <= 0.60491514) {
                                votes[7] += 0.15241617;
                            }

                            else {
                                votes[7] += -0.05729798;
                            }
                        }

                        // tree #152
                        if (x[3] <= -0.26463816) {
                            votes[8] += 0.056461047;
                        }

                        else {
                            votes[8] += -0.105611056;
                        }

                        // tree #153
                        if (x[9] <= -0.6298696) {
                            votes[9] += 0.06252959;
                        }

                        else {
                            votes[9] += -0.10663259;
                        }

                        // tree #154
                        if (x[13] <= -1.6959009) {
                            votes[10] += 0.09973538;
                        }

                        else {
                            votes[10] += -0.10600479;
                        }

                        // tree #155
                        if (x[0] <= -0.0331419) {
                            votes[0] += -0.11035505;
                        }

                        else {
                            if (x[17] <= 0.87072724) {
                                votes[0] += -0.0137626575;
                            }

                            else {
                                votes[0] += 0.15764147;
                            }
                        }

                        // tree #156
                        votes[1] += -0.01753641;
                        // tree #157
                        if (x[3] <= 0.11788881) {
                            votes[2] += -0.10832515;
                        }

                        else {
                            if (x[12] <= 0.323116) {
                                votes[2] += -0.05622382;
                            }

                            else {
                                votes[2] += 0.10166188;
                            }
                        }

                        // tree #158
                        votes[3] += -0.005936016;
                        // tree #159
                        if (x[1] <= 0.5066535) {
                            votes[4] += -0.10620982;
                        }

                        else {
                            votes[4] += 0.08046423;
                        }

                        // tree #160
                        if (x[7] <= 1.3031483) {
                            votes[5] += -0.10386639;
                        }

                        else {
                            votes[5] += 0.09042262;
                        }

                        // tree #161
                        if (x[7] <= 1.8489332) {
                            votes[6] += -0.08417685;
                        }

                        else {
                            votes[6] += 0.09113628;
                        }

                        // tree #162
                        if (x[15] <= 0.6717075) {
                            votes[7] += -0.10676232;
                        }

                        else {
                            votes[7] += 0.06580516;
                        }

                        // tree #163
                        votes[8] += -0.0131515805;
                        // tree #164
                        votes[9] += -0.0076589505;
                        // tree #165
                        if (x[15] <= -1.8890104) {
                            votes[10] += 0.13690843;
                        }

                        else {
                            votes[10] += -0.10283386;
                        }

                        // tree #166
                        if (x[8] <= 0.4095803) {
                            votes[0] += -0.07752458;
                        }

                        else {
                            votes[0] += 0.08215652;
                        }

                        // tree #167
                        if (x[1] <= -0.41929168) {
                            votes[1] += -0.111377716;
                        }

                        else {
                            if (x[8] <= 1.1143789) {
                                votes[1] += -0.0;
                            }

                            else {
                                votes[1] += 0.14841263;
                            }
                        }

                        // tree #168
                        votes[2] += -0.0053881938;
                        // tree #169
                        if (x[3] <= 0.30717307) {
                            votes[3] += -0.102038585;
                        }

                        else {
                            votes[3] += 0.056820948;
                        }

                        // tree #170
                        votes[4] += -0.0041825534;
                        // tree #171
                        if (x[6] <= -0.87578547) {
                            votes[5] += 0.08118055;
                        }

                        else {
                            votes[5] += -0.10385271;
                        }

                        // tree #172
                        if (x[7] <= 1.8489332) {
                            votes[6] += -0.06891913;
                        }

                        else {
                            votes[6] += 0.12352953;
                        }

                        // tree #173
                        if (x[1] <= -0.8801323) {
                            votes[7] += 0.10179171;
                        }

                        else {
                            votes[7] += -0.05068343;
                        }

                        // tree #174
                        if (x[12] <= 0.57186985) {
                            votes[8] += -0.09898837;
                        }

                        else {
                            votes[8] += 0.068685845;
                        }

                        // tree #175
                        votes[9] += -0.0;
                        // tree #176
                        if (x[15] <= -1.8890104) {
                            votes[10] += 0.10998923;
                        }

                        else {
                            votes[10] += -0.10280116;
                        }

                        // tree #177
                        if (x[3] <= 0.3219272) {
                            votes[0] += -0.11127439;
                        }

                        else {
                            votes[0] += 0.05771518;
                        }

                        // tree #178
                        votes[1] += -0.0046293186;
                        // tree #179
                        votes[2] += -0.0;
                        // tree #180
                        votes[3] += -0.022562318;
                        // tree #181
                        if (x[1] <= 0.70272785) {
                            votes[4] += -0.10331057;
                        }

                        else {
                            votes[4] += 0.075582415;
                        }

                        // tree #182
                        if (x[9] <= 0.7498412) {
                            votes[5] += -0.10226508;
                        }

                        else {
                            votes[5] += 0.078789234;
                        }

                        // tree #183
                        if (x[9] <= 0.59386206) {
                            votes[6] += -0.110522725;
                        }

                        else {
                            votes[6] += 0.083310135;
                        }

                        // tree #184
                        if (x[15] <= 0.6084746) {
                            votes[7] += -0.1026039;
                        }

                        else {
                            votes[7] += 0.0550734;
                        }

                        // tree #185
                        votes[8] += 0.009367775;
                        // tree #186
                        votes[9] += -0.0;
                        // tree #187
                        if (x[12] <= -1.6335914) {
                            votes[10] += 0.124667734;
                        }

                        else {
                            votes[10] += -0.09987161;
                        }

                        // tree #188
                        if (x[10] <= 1.3743864) {
                            votes[0] += -0.027245894;
                        }

                        else {
                            votes[0] += 0.15152344;
                        }

                        // tree #189
                        votes[1] += -0.0;
                        // tree #190
                        if (x[12] <= 0.13817707) {
                            votes[2] += -0.10538443;
                        }

                        else {
                            if (x[11] <= 0.38661838) {
                                votes[2] += 0.10776707;
                            }

                            else {
                                votes[2] += -0.10296316;
                            }
                        }

                        // tree #191
                        votes[3] += -0.0;
                        // tree #192
                        votes[4] += 0.010758145;
                        // tree #193
                        votes[5] += -0.0;
                        // tree #194
                        if (x[4] <= 1.9213263) {
                            votes[6] += -0.10313224;
                        }

                        else {
                            votes[6] += 0.055391748;
                        }

                        // tree #195
                        votes[7] += -0.013505624;
                        // tree #196
                        votes[8] += -0.0;
                        // tree #197
                        votes[9] += -0.0;
                        // tree #198
                        votes[10] += -0.0;
                        // tree #199
                        votes[0] += 0.0026966168;
                        // tree #200
                        votes[1] += -0.0;
                        // tree #201
                        votes[2] += -0.0;
                        // tree #202
                        votes[3] += -0.0;
                        // tree #203
                        if (x[15] <= -1.2316108) {
                            votes[4] += 0.08593654;
                        }

                        else {
                            votes[4] += -0.09808497;
                        }

                        // tree #204
                        if (x[6] <= -0.87578547) {
                            votes[5] += 0.083963014;
                        }

                        else {
                            votes[5] += -0.08392594;
                        }

                        // tree #205
                        if (x[0] <= -0.30706698) {
                            votes[6] += 0.11266822;
                        }

                        else {
                            votes[6] += -0.052951176;
                        }

                        // tree #206
                        if (x[8] <= 0.77264535) {
                            votes[7] += -0.10225155;
                        }

                        else {
                            votes[7] += 0.053615075;
                        }

                        // tree #207
                        votes[8] += -0.0045837983;
                        // tree #208
                        votes[9] += 0.0062756804;
                        // tree #209
                        votes[10] += -0.0;
                        // tree #210
                        votes[0] += -0.0;
                        // tree #211
                        votes[1] += -0.01334391;
                        // tree #212
                        votes[2] += -0.012285858;
                        // tree #213
                        votes[3] += -0.0;
                        // tree #214
                        votes[4] += -0.0;
                        // tree #215
                        votes[5] += -0.0;
                        // tree #216
                        votes[6] += 0.008555477;
                        // tree #217
                        if (x[9] <= 0.34282935) {
                            votes[7] += -0.10350573;
                        }

                        else {
                            votes[7] += 0.06706235;
                        }

                        // tree #218
                        votes[8] += -0.0017845145;
                        // tree #219
                        votes[9] += -0.0;
                        // tree #220
                        votes[10] += -0.0;
                        // tree #221
                        if (x[4] <= -0.3124842) {
                            votes[0] += -0.07220857;
                        }

                        else {
                            votes[0] += 0.0794835;
                        }

                        // tree #222
                        if (x[8] <= 1.1354753) {
                            votes[1] += -0.063359566;
                        }

                        else {
                            votes[1] += 0.11976912;
                        }

                        // tree #223
                        votes[2] += -0.020028876;
                        // tree #224
                        if (x[12] <= 0.021015162) {
                            votes[3] += 0.041127913;
                        }

                        else {
                            votes[3] += -0.105728075;
                        }

                        // tree #225
                        votes[4] += -0.0;
                        // tree #226
                        votes[5] += -0.0069213314;
                        // tree #227
                        votes[6] += -0.015312257;
                        // tree #228
                        votes[7] += 0.0020003915;
                        // tree #229
                        votes[8] += -0.02304459;
                        // tree #230
                        votes[9] += -0.0;
                        // tree #231
                        if (x[1] <= -1.0882801) {
                            votes[10] += 0.12314881;
                        }

                        else {
                            votes[10] += -0.05954864;
                        }

                        // tree #232
                        votes[0] += -0.00493244;
                        // tree #233
                        if (x[11] <= 0.64455986) {
                            votes[1] += -0.10513321;
                        }

                        else {
                            votes[1] += 0.058316376;
                        }

                        // tree #234
                        votes[2] += -0.0034729254;
                        // tree #235
                        if (x[15] <= -0.015468832) {
                            votes[3] += 0.059345685;
                        }

                        else {
                            votes[3] += -0.10650276;
                        }

                        // tree #236
                        votes[4] += 0.0019417516;
                        // tree #237
                        votes[5] += -0.0;
                        // tree #238
                        if (x[9] <= 0.6571919) {
                            votes[6] += -0.10362592;
                        }

                        else {
                            votes[6] += 0.08527896;
                        }

                        // tree #239
                        if (x[15] <= 0.73023427) {
                            votes[7] += -0.10574819;
                        }

                        else {
                            votes[7] += 0.059689254;
                        }

                        // tree #240
                        votes[8] += 0.0033637485;
                        // tree #241
                        votes[9] += -0.0;
                        // tree #242
                        votes[10] += -0.0048205345;
                        // tree #243
                        if (x[10] <= 0.5085267) {
                            votes[0] += -0.028157227;
                        }

                        else {
                            votes[0] += 0.118946;
                        }

                        // tree #244
                        votes[1] += -0.0018606402;
                        // tree #245
                        votes[2] += 0.004130455;
                        // tree #246
                        votes[3] += 0.0064228196;
                        // tree #247
                        votes[4] += 0.0038180423;
                        // tree #248
                        votes[5] += -0.0;
                        // tree #249
                        votes[6] += -0.0;
                        // tree #250
                        votes[7] += -0.0;
                        // tree #251
                        votes[8] += -0.0;
                        // tree #252
                        votes[9] += -0.0;
                        // tree #253
                        votes[10] += 0.008169329;
                        // tree #254
                        votes[0] += -0.0026105973;
                        // tree #255
                        votes[1] += -0.009382198;
                        // tree #256
                        votes[2] += -0.0;
                        // tree #257
                        votes[3] += -0.012000918;
                        // tree #258
                        votes[4] += -0.0;
                        // tree #259
                        votes[5] += 0.00049996347;
                        // tree #260
                        votes[6] += 0.0025139912;
                        // tree #261
                        votes[7] += -0.0;
                        // tree #262
                        votes[8] += -0.009659134;
                        // tree #263
                        votes[9] += -0.0;
                        // tree #264
                        votes[10] += 0.011703702;
                        // tree #265
                        if (x[2] <= -0.5091811) {
                            votes[0] += -0.11140466;
                        }

                        else {
                            votes[0] += 0.05077918;
                        }

                        // tree #266
                        if (x[11] <= 0.7048836) {
                            votes[1] += -0.10206509;
                        }

                        else {
                            votes[1] += 0.05008942;
                        }

                        // tree #267
                        votes[2] += -0.0;
                        // tree #268
                        votes[3] += -0.029367546;
                        // tree #269
                        votes[4] += 0.006797387;
                        // tree #270
                        votes[5] += 0.003235218;
                        // tree #271
                        votes[6] += -0.0;
                        // tree #272
                        votes[7] += -0.0;
                        // tree #273
                        votes[8] += -0.0;
                        // tree #274
                        votes[9] += -0.023875786;
                        // tree #275
                        votes[10] += 0.0048892694;
                        // tree #276
                        votes[0] += 0.022072611;
                        // tree #277
                        if (x[2] <= -0.0377033) {
                            votes[1] += -0.08572275;
                        }

                        else {
                            votes[1] += 0.050269417;
                        }

                        // tree #278
                        votes[2] += 0.012742422;
                        // tree #279
                        votes[3] += -0.0029412638;
                        // tree #280
                        votes[4] += -0.0;
                        // tree #281
                        votes[5] += -0.008574006;
                        // tree #282
                        votes[6] += -0.0;
                        // tree #283
                        votes[7] += -0.0;
                        // tree #284
                        votes[8] += 0.007969894;
                        // tree #285
                        votes[9] += -0.0;
                        // tree #286
                        votes[10] += -0.0041345097;
                        // tree #287
                        votes[0] += -0.004681508;
                        // tree #288
                        votes[1] += -0.0;
                        // tree #289
                        votes[2] += -0.0016376863;
                        // tree #290
                        votes[3] += -0.00016548285;
                        // tree #291
                        votes[4] += 0.0097961165;
                        // tree #292
                        votes[5] += -0.0;
                        // tree #293
                        if (x[0] <= -1.1569118) {
                            votes[6] += 0.11988965;
                        }

                        else {
                            votes[6] += -0.06734209;
                        }

                        // tree #294
                        if (x[15] <= 0.73023427) {
                            votes[7] += -0.10378099;
                        }

                        else {
                            votes[7] += 0.05810095;
                        }

                        // tree #295
                        votes[8] += -0.011759401;
                        // tree #296
                        votes[9] += -0.0;
                        // tree #297
                        votes[10] += -0.0;
                        // return argmax of votes
                        uint8_t classIdx = 0;
                        float maxVotes = votes[0];

                        for (uint8_t i = 1; i < 11; i++) {
                            if (votes[i] > maxVotes) {
                                classIdx = i;
                                maxVotes = votes[i];
                            }
                        }

                        return classIdx;
                    }

                protected:
                };
            }
        }
    }

#endif // BSL_MODEL_H_20250717_222005
